digraph Tree {
node [shape=box, style="filled, rounded", color="black", fontname="helvetica"] ;
edge [fontname="helvetica"] ;
0 [label="diabetes <= 0.5\nentropy = 0.6\nsamples = 1893\nvalue = [2530, 436]\nclass = Smoker", fillcolor="#e9975b"] ;
1 [label="age <= 0.5\nentropy = 0.45\nsamples = 1283\nvalue = [1811, 191]\nclass = Smoker", fillcolor="#e88e4e"] ;
0 -> 1 [labeldistance=2.5, labelangle=45, headlabel="True"] ;
2 [label="TenYearCHD <= 65.5\nentropy = 0.35\nsamples = 723\nvalue = [1044, 73]\nclass = Smoker", fillcolor="#e78a47"] ;
1 -> 2 ;
3 [label="BMI <= 88.5\nentropy = 0.5\nsamples = 160\nvalue = [201, 25]\nclass = Smoker", fillcolor="#e89152"] ;
2 -> 3 ;
4 [label="glucose <= 64.5\nentropy = 0.53\nsamples = 145\nvalue = [180, 25]\nclass = Smoker", fillcolor="#e99254"] ;
3 -> 4 ;
5 [label="BMI <= 74.25\nentropy = 0.88\nsamples = 22\nvalue = [19, 8]\nclass = Smoker", fillcolor="#f0b68c"] ;
4 -> 5 ;
6 [label="heartRate <= 21.26\nentropy = 0.35\nsamples = 12\nvalue = [14, 1]\nclass = Smoker", fillcolor="#e78a47"] ;
5 -> 6 ;
7 [label="BPMeds <= 15.0\nentropy = 0.72\nsamples = 3\nvalue = [4, 1]\nclass = Smoker", fillcolor="#eca06a"] ;
6 -> 7 ;
8 [label="entropy = 0.0\nsamples = 2\nvalue = [4, 0]\nclass = Smoker", fillcolor="#e58139"] ;
7 -> 8 ;
9 [label="entropy = 0.0\nsamples = 1\nvalue = [0, 1]\nclass = Non Smoker", fillcolor="#399de5"] ;
7 -> 9 ;
10 [label="entropy = 0.0\nsamples = 9\nvalue = [10, 0]\nclass = Smoker", fillcolor="#e58139"] ;
6 -> 10 ;
11 [label="heartRate <= 19.8\nentropy = 0.98\nsamples = 10\nvalue = [5, 7]\nclass = Non Smoker", fillcolor="#c6e3f8"] ;
5 -> 11 ;
12 [label="entropy = 0.0\nsamples = 2\nvalue = [2, 0]\nclass = Smoker", fillcolor="#e58139"] ;
11 -> 12 ;
13 [label="sysBP <= 251.5\nentropy = 0.88\nsamples = 8\nvalue = [3, 7]\nclass = Non Smoker", fillcolor="#8ec7f0"] ;
11 -> 13 ;
14 [label="sysBP <= 221.5\nentropy = 0.99\nsamples = 6\nvalue = [3, 4]\nclass = Non Smoker", fillcolor="#cee6f8"] ;
13 -> 14 ;
15 [label="glucose <= 62.0\nentropy = 0.72\nsamples = 4\nvalue = [1, 4]\nclass = Non Smoker", fillcolor="#6ab6ec"] ;
14 -> 15 ;
16 [label="entropy = 0.0\nsamples = 3\nvalue = [0, 4]\nclass = Non Smoker", fillcolor="#399de5"] ;
15 -> 16 ;
17 [label="entropy = 0.0\nsamples = 1\nvalue = [1, 0]\nclass = Smoker", fillcolor="#e58139"] ;
15 -> 17 ;
18 [label="entropy = 0.0\nsamples = 2\nvalue = [2, 0]\nclass = Smoker", fillcolor="#e58139"] ;
14 -> 18 ;
19 [label="entropy = 0.0\nsamples = 2\nvalue = [0, 3]\nclass = Non Smoker", fillcolor="#399de5"] ;
13 -> 19 ;
20 [label="BMI <= 57.0\nentropy = 0.45\nsamples = 123\nvalue = [161, 17]\nclass = Smoker", fillcolor="#e88e4e"] ;
4 -> 20 ;
21 [label="entropy = 0.0\nsamples = 1\nvalue = [0, 1]\nclass = Non Smoker", fillcolor="#399de5"] ;
20 -> 21 ;
22 [label="glucose <= 77.5\nentropy = 0.44\nsamples = 122\nvalue = [161, 16]\nclass = Smoker", fillcolor="#e88e4d"] ;
20 -> 22 ;
23 [label="sysBP <= 253.5\nentropy = 0.2\nsamples = 71\nvalue = [96, 3]\nclass = Smoker", fillcolor="#e6853f"] ;
22 -> 23 ;
24 [label="education <= 41.5\nentropy = 0.24\nsamples = 52\nvalue = [71, 3]\nclass = Smoker", fillcolor="#e68641"] ;
23 -> 24 ;
25 [label="entropy = 0.0\nsamples = 20\nvalue = [28, 0]\nclass = Smoker", fillcolor="#e58139"] ;
24 -> 25 ;
26 [label="BPMeds <= 30.0\nentropy = 0.35\nsamples = 32\nvalue = [43, 3]\nclass = Smoker", fillcolor="#e78a47"] ;
24 -> 26 ;
27 [label="BMI <= 78.5\nentropy = 0.26\nsamples = 31\nvalue = [43, 2]\nclass = Smoker", fillcolor="#e68742"] ;
26 -> 27 ;
28 [label="entropy = 0.0\nsamples = 17\nvalue = [25, 0]\nclass = Smoker", fillcolor="#e58139"] ;
27 -> 28 ;
29 [label="BMI <= 81.0\nentropy = 0.47\nsamples = 14\nvalue = [18, 2]\nclass = Smoker", fillcolor="#e88f4f"] ;
27 -> 29 ;
30 [label="heartRate <= 28.87\nentropy = 0.92\nsamples = 3\nvalue = [1, 2]\nclass = Non Smoker", fillcolor="#9ccef2"] ;
29 -> 30 ;
31 [label="entropy = 0.0\nsamples = 2\nvalue = [0, 2]\nclass = Non Smoker", fillcolor="#399de5"] ;
30 -> 31 ;
32 [label="entropy = 0.0\nsamples = 1\nvalue = [1, 0]\nclass = Smoker", fillcolor="#e58139"] ;
30 -> 32 ;
33 [label="entropy = 0.0\nsamples = 11\nvalue = [17, 0]\nclass = Smoker", fillcolor="#e58139"] ;
29 -> 33 ;
34 [label="entropy = 0.0\nsamples = 1\nvalue = [0, 1]\nclass = Non Smoker", fillcolor="#399de5"] ;
26 -> 34 ;
35 [label="entropy = 0.0\nsamples = 19\nvalue = [25, 0]\nclass = Smoker", fillcolor="#e58139"] ;
23 -> 35 ;
36 [label="heartRate <= 19.73\nentropy = 0.65\nsamples = 51\nvalue = [65, 13]\nclass = Smoker", fillcolor="#ea9a61"] ;
22 -> 36 ;
37 [label="BMI <= 80.0\nentropy = 0.92\nsamples = 5\nvalue = [2, 4]\nclass = Non Smoker", fillcolor="#9ccef2"] ;
36 -> 37 ;
38 [label="BMI <= 70.0\nentropy = 0.72\nsamples = 4\nvalue = [1, 4]\nclass = Non Smoker", fillcolor="#6ab6ec"] ;
37 -> 38 ;
39 [label="entropy = 0.0\nsamples = 1\nvalue = [0, 2]\nclass = Non Smoker", fillcolor="#399de5"] ;
38 -> 39 ;
40 [label="sysBP <= 197.5\nentropy = 0.92\nsamples = 3\nvalue = [1, 2]\nclass = Non Smoker", fillcolor="#9ccef2"] ;
38 -> 40 ;
41 [label="entropy = 0.0\nsamples = 1\nvalue = [1, 0]\nclass = Smoker", fillcolor="#e58139"] ;
40 -> 41 ;
42 [label="entropy = 0.0\nsamples = 2\nvalue = [0, 2]\nclass = Non Smoker", fillcolor="#399de5"] ;
40 -> 42 ;
43 [label="entropy = 0.0\nsamples = 1\nvalue = [1, 0]\nclass = Smoker", fillcolor="#e58139"] ;
37 -> 43 ;
44 [label="heartRate <= 33.34\nentropy = 0.54\nsamples = 46\nvalue = [63, 9]\nclass = Smoker", fillcolor="#e99355"] ;
36 -> 44 ;
45 [label="education <= 39.5\nentropy = 0.51\nsamples = 45\nvalue = [63, 8]\nclass = Smoker", fillcolor="#e89152"] ;
44 -> 45 ;
46 [label="entropy = 0.0\nsamples = 12\nvalue = [15, 0]\nclass = Smoker", fillcolor="#e58139"] ;
45 -> 46 ;
47 [label="BPMeds <= 22.5\nentropy = 0.59\nsamples = 33\nvalue = [48, 8]\nclass = Smoker", fillcolor="#e9965a"] ;
45 -> 47 ;
48 [label="glucose <= 81.0\nentropy = 0.63\nsamples = 30\nvalue = [42, 8]\nclass = Smoker", fillcolor="#ea995f"] ;
47 -> 48 ;
49 [label="currentSmoker <= 1.5\nentropy = 0.98\nsamples = 11\nvalue = [7, 5]\nclass = Smoker", fillcolor="#f8dbc6"] ;
48 -> 49 ;
50 [label="entropy = 0.0\nsamples = 3\nvalue = [3, 0]\nclass = Smoker", fillcolor="#e58139"] ;
49 -> 50 ;
51 [label="currentSmoker <= 2.5\nentropy = 0.99\nsamples = 8\nvalue = [4, 5]\nclass = Non Smoker", fillcolor="#d7ebfa"] ;
49 -> 51 ;
52 [label="education <= 53.0\nentropy = 0.95\nsamples = 7\nvalue = [3, 5]\nclass = Non Smoker", fillcolor="#b0d8f5"] ;
51 -> 52 ;
53 [label="diaBP <= 133.75\nentropy = 0.86\nsamples = 6\nvalue = [2, 5]\nclass = Non Smoker", fillcolor="#88c4ef"] ;
52 -> 53 ;
54 [label="BPMeds <= 1.5\nentropy = 0.92\nsamples = 5\nvalue = [2, 4]\nclass = Non Smoker", fillcolor="#9ccef2"] ;
53 -> 54 ;
55 [label="entropy = 0.0\nsamples = 1\nvalue = [0, 2]\nclass = Non Smoker", fillcolor="#399de5"] ;
54 -> 55 ;
56 [label="BMI <= 77.0\nentropy = 1.0\nsamples = 4\nvalue = [2, 2]\nclass = Smoker", fillcolor="#ffffff"] ;
54 -> 56 ;
57 [label="entropy = 0.0\nsamples = 1\nvalue = [0, 1]\nclass = Non Smoker", fillcolor="#399de5"] ;
56 -> 57 ;
58 [label="BPMeds <= 17.5\nentropy = 0.92\nsamples = 3\nvalue = [2, 1]\nclass = Smoker", fillcolor="#f2c09c"] ;
56 -> 58 ;
59 [label="entropy = 0.0\nsamples = 2\nvalue = [2, 0]\nclass = Smoker", fillcolor="#e58139"] ;
58 -> 59 ;
60 [label="entropy = 0.0\nsamples = 1\nvalue = [0, 1]\nclass = Non Smoker", fillcolor="#399de5"] ;
58 -> 60 ;
61 [label="entropy = 0.0\nsamples = 1\nvalue = [0, 1]\nclass = Non Smoker", fillcolor="#399de5"] ;
53 -> 61 ;
62 [label="entropy = 0.0\nsamples = 1\nvalue = [1, 0]\nclass = Smoker", fillcolor="#e58139"] ;
52 -> 62 ;
63 [label="entropy = 0.0\nsamples = 1\nvalue = [1, 0]\nclass = Smoker", fillcolor="#e58139"] ;
51 -> 63 ;
64 [label="BMI <= 79.75\nentropy = 0.4\nsamples = 19\nvalue = [35, 3]\nclass = Smoker", fillcolor="#e78c4a"] ;
48 -> 64 ;
65 [label="entropy = 0.0\nsamples = 12\nvalue = [24, 0]\nclass = Smoker", fillcolor="#e58139"] ;
64 -> 65 ;
66 [label="TenYearCHD <= 61.0\nentropy = 0.75\nsamples = 7\nvalue = [11, 3]\nclass = Smoker", fillcolor="#eca36f"] ;
64 -> 66 ;
67 [label="heartRate <= 27.13\nentropy = 0.99\nsamples = 5\nvalue = [4, 3]\nclass = Smoker", fillcolor="#f8e0ce"] ;
66 -> 67 ;
68 [label="glucose <= 93.0\nentropy = 0.92\nsamples = 4\nvalue = [4, 2]\nclass = Smoker", fillcolor="#f2c09c"] ;
67 -> 68 ;
69 [label="heartRate <= 25.76\nentropy = 0.72\nsamples = 3\nvalue = [4, 1]\nclass = Smoker", fillcolor="#eca06a"] ;
68 -> 69 ;
70 [label="cigsPerDay <= 0.5\nentropy = 1.0\nsamples = 2\nvalue = [1, 1]\nclass = Smoker", fillcolor="#ffffff"] ;
69 -> 70 ;
71 [label="entropy = 0.0\nsamples = 1\nvalue = [0, 1]\nclass = Non Smoker", fillcolor="#399de5"] ;
70 -> 71 ;
72 [label="entropy = 0.0\nsamples = 1\nvalue = [1, 0]\nclass = Smoker", fillcolor="#e58139"] ;
70 -> 72 ;
73 [label="entropy = 0.0\nsamples = 1\nvalue = [3, 0]\nclass = Smoker", fillcolor="#e58139"] ;
69 -> 73 ;
74 [label="entropy = 0.0\nsamples = 1\nvalue = [0, 1]\nclass = Non Smoker", fillcolor="#399de5"] ;
68 -> 74 ;
75 [label="entropy = 0.0\nsamples = 1\nvalue = [0, 1]\nclass = Non Smoker", fillcolor="#399de5"] ;
67 -> 75 ;
76 [label="entropy = 0.0\nsamples = 2\nvalue = [7, 0]\nclass = Smoker", fillcolor="#e58139"] ;
66 -> 76 ;
77 [label="entropy = 0.0\nsamples = 3\nvalue = [6, 0]\nclass = Smoker", fillcolor="#e58139"] ;
47 -> 77 ;
78 [label="entropy = 0.0\nsamples = 1\nvalue = [0, 1]\nclass = Non Smoker", fillcolor="#399de5"] ;
44 -> 78 ;
79 [label="entropy = 0.0\nsamples = 15\nvalue = [21, 0]\nclass = Smoker", fillcolor="#e58139"] ;
3 -> 79 ;
80 [label="sysBP <= 367.0\nentropy = 0.3\nsamples = 563\nvalue = [843, 48]\nclass = Smoker", fillcolor="#e68844"] ;
2 -> 80 ;
81 [label="prevalentStroke <= 0.08\nentropy = 0.29\nsamples = 561\nvalue = [841, 45]\nclass = Smoker", fillcolor="#e68844"] ;
80 -> 81 ;
82 [label="heartRate <= 25.06\nentropy = 0.28\nsamples = 552\nvalue = [833, 42]\nclass = Smoker", fillcolor="#e68743"] ;
81 -> 82 ;
83 [label="sysBP <= 178.5\nentropy = 0.2\nsamples = 336\nvalue = [527, 17]\nclass = Smoker", fillcolor="#e6853f"] ;
82 -> 83 ;
84 [label="entropy = 0.0\nsamples = 38\nvalue = [53, 0]\nclass = Smoker", fillcolor="#e58139"] ;
83 -> 84 ;
85 [label="TenYearCHD <= 86.5\nentropy = 0.22\nsamples = 298\nvalue = [474, 17]\nclass = Smoker", fillcolor="#e68640"] ;
83 -> 85 ;
86 [label="cigsPerDay <= 0.5\nentropy = 0.15\nsamples = 232\nvalue = [371, 8]\nclass = Smoker", fillcolor="#e6843d"] ;
85 -> 86 ;
87 [label="entropy = 0.0\nsamples = 118\nvalue = [193, 0]\nclass = Smoker", fillcolor="#e58139"] ;
86 -> 87 ;
88 [label="sysBP <= 324.0\nentropy = 0.26\nsamples = 114\nvalue = [178, 8]\nclass = Smoker", fillcolor="#e68742"] ;
86 -> 88 ;
89 [label="diaBP <= 142.5\nentropy = 0.23\nsamples = 113\nvalue = [178, 7]\nclass = Smoker", fillcolor="#e68641"] ;
88 -> 89 ;
90 [label="BPMeds <= 35.0\nentropy = 0.19\nsamples = 108\nvalue = [171, 5]\nclass = Smoker", fillcolor="#e6853f"] ;
89 -> 90 ;
91 [label="heartRate <= 22.15\nentropy = 0.16\nsamples = 106\nvalue = [170, 4]\nclass = Smoker", fillcolor="#e6843e"] ;
90 -> 91 ;
92 [label="entropy = 0.0\nsamples = 45\nvalue = [76, 0]\nclass = Smoker", fillcolor="#e58139"] ;
91 -> 92 ;
93 [label="education <= 54.5\nentropy = 0.25\nsamples = 61\nvalue = [94, 4]\nclass = Smoker", fillcolor="#e68641"] ;
91 -> 93 ;
94 [label="currentSmoker <= 2.5\nentropy = 0.16\nsamples = 52\nvalue = [82, 2]\nclass = Smoker", fillcolor="#e6843e"] ;
93 -> 94 ;
95 [label="BPMeds <= 11.0\nentropy = 0.24\nsamples = 35\nvalue = [49, 2]\nclass = Smoker", fillcolor="#e68641"] ;
94 -> 95 ;
96 [label="BMI <= 75.5\nentropy = 0.41\nsamples = 15\nvalue = [22, 2]\nclass = Smoker", fillcolor="#e78c4b"] ;
95 -> 96 ;
97 [label="entropy = 0.0\nsamples = 8\nvalue = [14, 0]\nclass = Smoker", fillcolor="#e58139"] ;
96 -> 97 ;
98 [label="heartRate <= 22.21\nentropy = 0.72\nsamples = 7\nvalue = [8, 2]\nclass = Smoker", fillcolor="#eca06a"] ;
96 -> 98 ;
99 [label="entropy = 0.0\nsamples = 1\nvalue = [0, 1]\nclass = Non Smoker", fillcolor="#399de5"] ;
98 -> 99 ;
100 [label="diaBP <= 119.0\nentropy = 0.5\nsamples = 6\nvalue = [8, 1]\nclass = Smoker", fillcolor="#e89152"] ;
98 -> 100 ;
101 [label="sysBP <= 260.0\nentropy = 0.92\nsamples = 2\nvalue = [2, 1]\nclass = Smoker", fillcolor="#f2c09c"] ;
100 -> 101 ;
102 [label="entropy = 0.0\nsamples = 1\nvalue = [0, 1]\nclass = Non Smoker", fillcolor="#399de5"] ;
101 -> 102 ;
103 [label="entropy = 0.0\nsamples = 1\nvalue = [2, 0]\nclass = Smoker", fillcolor="#e58139"] ;
101 -> 103 ;
104 [label="entropy = 0.0\nsamples = 4\nvalue = [6, 0]\nclass = Smoker", fillcolor="#e58139"] ;
100 -> 104 ;
105 [label="entropy = 0.0\nsamples = 20\nvalue = [27, 0]\nclass = Smoker", fillcolor="#e58139"] ;
95 -> 105 ;
106 [label="entropy = 0.0\nsamples = 17\nvalue = [33, 0]\nclass = Smoker", fillcolor="#e58139"] ;
94 -> 106 ;
107 [label="BMI <= 65.0\nentropy = 0.59\nsamples = 9\nvalue = [12, 2]\nclass = Smoker", fillcolor="#e9965a"] ;
93 -> 107 ;
108 [label="entropy = 0.0\nsamples = 1\nvalue = [0, 2]\nclass = Non Smoker", fillcolor="#399de5"] ;
107 -> 108 ;
109 [label="entropy = 0.0\nsamples = 8\nvalue = [12, 0]\nclass = Smoker", fillcolor="#e58139"] ;
107 -> 109 ;
110 [label="education <= 51.5\nentropy = 1.0\nsamples = 2\nvalue = [1, 1]\nclass = Smoker", fillcolor="#ffffff"] ;
90 -> 110 ;
111 [label="entropy = 0.0\nsamples = 1\nvalue = [1, 0]\nclass = Smoker", fillcolor="#e58139"] ;
110 -> 111 ;
112 [label="entropy = 0.0\nsamples = 1\nvalue = [0, 1]\nclass = Non Smoker", fillcolor="#399de5"] ;
110 -> 112 ;
113 [label="heartRate <= 23.4\nentropy = 0.76\nsamples = 5\nvalue = [7, 2]\nclass = Smoker", fillcolor="#eca572"] ;
89 -> 113 ;
114 [label="sysBP <= 296.5\nentropy = 0.92\nsamples = 3\nvalue = [1, 2]\nclass = Non Smoker", fillcolor="#9ccef2"] ;
113 -> 114 ;
115 [label="entropy = 0.0\nsamples = 2\nvalue = [0, 2]\nclass = Non Smoker", fillcolor="#399de5"] ;
114 -> 115 ;
116 [label="entropy = 0.0\nsamples = 1\nvalue = [1, 0]\nclass = Smoker", fillcolor="#e58139"] ;
114 -> 116 ;
117 [label="entropy = 0.0\nsamples = 2\nvalue = [6, 0]\nclass = Smoker", fillcolor="#e58139"] ;
113 -> 117 ;
118 [label="entropy = 0.0\nsamples = 1\nvalue = [0, 1]\nclass = Non Smoker", fillcolor="#399de5"] ;
88 -> 118 ;
119 [label="BPMeds <= 7.0\nentropy = 0.4\nsamples = 66\nvalue = [103, 9]\nclass = Smoker", fillcolor="#e78c4a"] ;
85 -> 119 ;
120 [label="cigsPerDay <= 0.5\nentropy = 0.51\nsamples = 43\nvalue = [70, 9]\nclass = Smoker", fillcolor="#e89152"] ;
119 -> 120 ;
121 [label="BMI <= 67.0\nentropy = 0.33\nsamples = 36\nvalue = [63, 4]\nclass = Smoker", fillcolor="#e78946"] ;
120 -> 121 ;
122 [label="education <= 41.5\nentropy = 1.0\nsamples = 2\nvalue = [1, 1]\nclass = Smoker", fillcolor="#ffffff"] ;
121 -> 122 ;
123 [label="entropy = 0.0\nsamples = 1\nvalue = [1, 0]\nclass = Smoker", fillcolor="#e58139"] ;
122 -> 123 ;
124 [label="entropy = 0.0\nsamples = 1\nvalue = [0, 1]\nclass = Non Smoker", fillcolor="#399de5"] ;
122 -> 124 ;
125 [label="BMI <= 80.5\nentropy = 0.27\nsamples = 34\nvalue = [62, 3]\nclass = Smoker", fillcolor="#e68743"] ;
121 -> 125 ;
126 [label="entropy = 0.0\nsamples = 22\nvalue = [42, 0]\nclass = Smoker", fillcolor="#e58139"] ;
125 -> 126 ;
127 [label="heartRate <= 22.36\nentropy = 0.56\nsamples = 12\nvalue = [20, 3]\nclass = Smoker", fillcolor="#e99457"] ;
125 -> 127 ;
128 [label="education <= 46.0\nentropy = 1.0\nsamples = 4\nvalue = [3, 3]\nclass = Smoker", fillcolor="#ffffff"] ;
127 -> 128 ;
129 [label="entropy = 0.0\nsamples = 1\nvalue = [0, 2]\nclass = Non Smoker", fillcolor="#399de5"] ;
128 -> 129 ;
130 [label="diaBP <= 129.0\nentropy = 0.81\nsamples = 3\nvalue = [3, 1]\nclass = Smoker", fillcolor="#eeab7b"] ;
128 -> 130 ;
131 [label="entropy = 0.0\nsamples = 2\nvalue = [3, 0]\nclass = Smoker", fillcolor="#e58139"] ;
130 -> 131 ;
132 [label="entropy = 0.0\nsamples = 1\nvalue = [0, 1]\nclass = Non Smoker", fillcolor="#399de5"] ;
130 -> 132 ;
133 [label="entropy = 0.0\nsamples = 8\nvalue = [17, 0]\nclass = Smoker", fillcolor="#e58139"] ;
127 -> 133 ;
134 [label="education <= 42.5\nentropy = 0.98\nsamples = 7\nvalue = [7, 5]\nclass = Smoker", fillcolor="#f8dbc6"] ;
120 -> 134 ;
135 [label="entropy = 0.0\nsamples = 1\nvalue = [0, 3]\nclass = Non Smoker", fillcolor="#399de5"] ;
134 -> 135 ;
136 [label="heartRate <= 24.08\nentropy = 0.76\nsamples = 6\nvalue = [7, 2]\nclass = Smoker", fillcolor="#eca572"] ;
134 -> 136 ;
137 [label="entropy = 0.0\nsamples = 5\nvalue = [7, 0]\nclass = Smoker", fillcolor="#e58139"] ;
136 -> 137 ;
138 [label="entropy = 0.0\nsamples = 1\nvalue = [0, 2]\nclass = Non Smoker", fillcolor="#399de5"] ;
136 -> 138 ;
139 [label="entropy = 0.0\nsamples = 23\nvalue = [33, 0]\nclass = Smoker", fillcolor="#e58139"] ;
119 -> 139 ;
140 [label="TenYearCHD <= 87.5\nentropy = 0.39\nsamples = 216\nvalue = [306, 25]\nclass = Smoker", fillcolor="#e78b49"] ;
82 -> 140 ;
141 [label="glucose <= 91.0\nentropy = 0.44\nsamples = 167\nvalue = [236, 24]\nclass = Smoker", fillcolor="#e88e4d"] ;
140 -> 141 ;
142 [label="heartRate <= 25.08\nentropy = 0.4\nsamples = 153\nvalue = [217, 19]\nclass = Smoker", fillcolor="#e78c4a"] ;
141 -> 142 ;
143 [label="entropy = 0.0\nsamples = 1\nvalue = [0, 1]\nclass = Non Smoker", fillcolor="#399de5"] ;
142 -> 143 ;
144 [label="currentSmoker <= 2.5\nentropy = 0.39\nsamples = 152\nvalue = [217, 18]\nclass = Smoker", fillcolor="#e78b49"] ;
142 -> 144 ;
145 [label="education <= 47.5\nentropy = 0.43\nsamples = 119\nvalue = [166, 16]\nclass = Smoker", fillcolor="#e88d4c"] ;
144 -> 145 ;
146 [label="glucose <= 61.0\nentropy = 0.15\nsamples = 60\nvalue = [92, 2]\nclass = Smoker", fillcolor="#e6843d"] ;
145 -> 146 ;
147 [label="glucose <= 57.5\nentropy = 0.92\nsamples = 3\nvalue = [2, 1]\nclass = Smoker", fillcolor="#f2c09c"] ;
146 -> 147 ;
148 [label="entropy = 0.0\nsamples = 1\nvalue = [1, 0]\nclass = Smoker", fillcolor="#e58139"] ;
147 -> 148 ;
149 [label="TenYearCHD <= 76.5\nentropy = 1.0\nsamples = 2\nvalue = [1, 1]\nclass = Smoker", fillcolor="#ffffff"] ;
147 -> 149 ;
150 [label="entropy = 0.0\nsamples = 1\nvalue = [0, 1]\nclass = Non Smoker", fillcolor="#399de5"] ;
149 -> 150 ;
151 [label="entropy = 0.0\nsamples = 1\nvalue = [1, 0]\nclass = Smoker", fillcolor="#e58139"] ;
149 -> 151 ;
152 [label="glucose <= 72.5\nentropy = 0.09\nsamples = 57\nvalue = [90, 1]\nclass = Smoker", fillcolor="#e5823b"] ;
146 -> 152 ;
153 [label="BMI <= 79.5\nentropy = 0.19\nsamples = 21\nvalue = [34, 1]\nclass = Smoker", fillcolor="#e6853f"] ;
152 -> 153 ;
154 [label="entropy = 0.0\nsamples = 9\nvalue = [15, 0]\nclass = Smoker", fillcolor="#e58139"] ;
153 -> 154 ;
155 [label="BMI <= 81.0\nentropy = 0.29\nsamples = 12\nvalue = [19, 1]\nclass = Smoker", fillcolor="#e68843"] ;
153 -> 155 ;
156 [label="sysBP <= 200.5\nentropy = 0.54\nsamples = 5\nvalue = [7, 1]\nclass = Smoker", fillcolor="#e99355"] ;
155 -> 156 ;
157 [label="entropy = 0.0\nsamples = 2\nvalue = [5, 0]\nclass = Smoker", fillcolor="#e58139"] ;
156 -> 157 ;
158 [label="TenYearCHD <= 70.0\nentropy = 0.92\nsamples = 3\nvalue = [2, 1]\nclass = Smoker", fillcolor="#f2c09c"] ;
156 -> 158 ;
159 [label="entropy = 0.0\nsamples = 1\nvalue = [0, 1]\nclass = Non Smoker", fillcolor="#399de5"] ;
158 -> 159 ;
160 [label="entropy = 0.0\nsamples = 2\nvalue = [2, 0]\nclass = Smoker", fillcolor="#e58139"] ;
158 -> 160 ;
161 [label="entropy = 0.0\nsamples = 7\nvalue = [12, 0]\nclass = Smoker", fillcolor="#e58139"] ;
155 -> 161 ;
162 [label="entropy = 0.0\nsamples = 36\nvalue = [56, 0]\nclass = Smoker", fillcolor="#e58139"] ;
152 -> 162 ;
163 [label="BMI <= 68.75\nentropy = 0.63\nsamples = 59\nvalue = [74, 14]\nclass = Smoker", fillcolor="#ea995e"] ;
145 -> 163 ;
164 [label="glucose <= 72.5\nentropy = 0.92\nsamples = 2\nvalue = [1, 2]\nclass = Non Smoker", fillcolor="#9ccef2"] ;
163 -> 164 ;
165 [label="entropy = 0.0\nsamples = 1\nvalue = [1, 0]\nclass = Smoker", fillcolor="#e58139"] ;
164 -> 165 ;
166 [label="entropy = 0.0\nsamples = 1\nvalue = [0, 2]\nclass = Non Smoker", fillcolor="#399de5"] ;
164 -> 166 ;
167 [label="TenYearCHD <= 84.5\nentropy = 0.59\nsamples = 57\nvalue = [73, 12]\nclass = Smoker", fillcolor="#e9965a"] ;
163 -> 167 ;
168 [label="diaBP <= 102.5\nentropy = 0.52\nsamples = 52\nvalue = [67, 9]\nclass = Smoker", fillcolor="#e89254"] ;
167 -> 168 ;
169 [label="entropy = 0.0\nsamples = 1\nvalue = [0, 1]\nclass = Non Smoker", fillcolor="#399de5"] ;
168 -> 169 ;
170 [label="education <= 57.5\nentropy = 0.49\nsamples = 51\nvalue = [67, 8]\nclass = Smoker", fillcolor="#e89051"] ;
168 -> 170 ;
171 [label="heartRate <= 29.11\nentropy = 0.63\nsamples = 35\nvalue = [43, 8]\nclass = Smoker", fillcolor="#ea985e"] ;
170 -> 171 ;
172 [label="glucose <= 66.0\nentropy = 0.73\nsamples = 27\nvalue = [31, 8]\nclass = Smoker", fillcolor="#eca26c"] ;
171 -> 172 ;
173 [label="heartRate <= 26.14\nentropy = 0.72\nsamples = 3\nvalue = [1, 4]\nclass = Non Smoker", fillcolor="#6ab6ec"] ;
172 -> 173 ;
174 [label="entropy = 0.0\nsamples = 1\nvalue = [1, 0]\nclass = Smoker", fillcolor="#e58139"] ;
173 -> 174 ;
175 [label="entropy = 0.0\nsamples = 2\nvalue = [0, 4]\nclass = Non Smoker", fillcolor="#399de5"] ;
173 -> 175 ;
176 [label="BMI <= 81.5\nentropy = 0.52\nsamples = 24\nvalue = [30, 4]\nclass = Smoker", fillcolor="#e89253"] ;
172 -> 176 ;
177 [label="entropy = 0.0\nsamples = 15\nvalue = [22, 0]\nclass = Smoker", fillcolor="#e58139"] ;
176 -> 177 ;
178 [label="sysBP <= 237.0\nentropy = 0.92\nsamples = 9\nvalue = [8, 4]\nclass = Smoker", fillcolor="#f2c09c"] ;
176 -> 178 ;
179 [label="entropy = 0.0\nsamples = 3\nvalue = [5, 0]\nclass = Smoker", fillcolor="#e58139"] ;
178 -> 179 ;
180 [label="diaBP <= 129.5\nentropy = 0.99\nsamples = 6\nvalue = [3, 4]\nclass = Non Smoker", fillcolor="#cee6f8"] ;
178 -> 180 ;
181 [label="entropy = 0.0\nsamples = 2\nvalue = [0, 3]\nclass = Non Smoker", fillcolor="#399de5"] ;
180 -> 181 ;
182 [label="sysBP <= 262.5\nentropy = 0.81\nsamples = 4\nvalue = [3, 1]\nclass = Smoker", fillcolor="#eeab7b"] ;
180 -> 182 ;
183 [label="entropy = 0.0\nsamples = 1\nvalue = [0, 1]\nclass = Non Smoker", fillcolor="#399de5"] ;
182 -> 183 ;
184 [label="entropy = 0.0\nsamples = 3\nvalue = [3, 0]\nclass = Smoker", fillcolor="#e58139"] ;
182 -> 184 ;
185 [label="entropy = 0.0\nsamples = 8\nvalue = [12, 0]\nclass = Smoker", fillcolor="#e58139"] ;
171 -> 185 ;
186 [label="entropy = 0.0\nsamples = 16\nvalue = [24, 0]\nclass = Smoker", fillcolor="#e58139"] ;
170 -> 186 ;
187 [label="diaBP <= 137.25\nentropy = 0.92\nsamples = 5\nvalue = [6, 3]\nclass = Smoker", fillcolor="#f2c09c"] ;
167 -> 187 ;
188 [label="education <= 58.5\nentropy = 0.59\nsamples = 4\nvalue = [6, 1]\nclass = Smoker", fillcolor="#e9965a"] ;
187 -> 188 ;
189 [label="entropy = 0.0\nsamples = 2\nvalue = [4, 0]\nclass = Smoker", fillcolor="#e58139"] ;
188 -> 189 ;
190 [label="BMI <= 82.5\nentropy = 0.92\nsamples = 2\nvalue = [2, 1]\nclass = Smoker", fillcolor="#f2c09c"] ;
188 -> 190 ;
191 [label="entropy = 0.0\nsamples = 1\nvalue = [0, 1]\nclass = Non Smoker", fillcolor="#399de5"] ;
190 -> 191 ;
192 [label="entropy = 0.0\nsamples = 1\nvalue = [2, 0]\nclass = Smoker", fillcolor="#e58139"] ;
190 -> 192 ;
193 [label="entropy = 0.0\nsamples = 1\nvalue = [0, 2]\nclass = Non Smoker", fillcolor="#399de5"] ;
187 -> 193 ;
194 [label="sysBP <= 207.5\nentropy = 0.23\nsamples = 33\nvalue = [51, 2]\nclass = Smoker", fillcolor="#e68641"] ;
144 -> 194 ;
195 [label="diaBP <= 146.5\nentropy = 0.54\nsamples = 6\nvalue = [7, 1]\nclass = Smoker", fillcolor="#e99355"] ;
194 -> 195 ;
196 [label="entropy = 0.0\nsamples = 5\nvalue = [7, 0]\nclass = Smoker", fillcolor="#e58139"] ;
195 -> 196 ;
197 [label="entropy = 0.0\nsamples = 1\nvalue = [0, 1]\nclass = Non Smoker", fillcolor="#399de5"] ;
195 -> 197 ;
198 [label="diaBP <= 144.0\nentropy = 0.15\nsamples = 27\nvalue = [44, 1]\nclass = Smoker", fillcolor="#e6843d"] ;
194 -> 198 ;
199 [label="entropy = 0.0\nsamples = 25\nvalue = [43, 0]\nclass = Smoker", fillcolor="#e58139"] ;
198 -> 199 ;
200 [label="sysBP <= 272.5\nentropy = 1.0\nsamples = 2\nvalue = [1, 1]\nclass = Smoker", fillcolor="#ffffff"] ;
198 -> 200 ;
201 [label="entropy = 0.0\nsamples = 1\nvalue = [1, 0]\nclass = Smoker", fillcolor="#e58139"] ;
200 -> 201 ;
202 [label="entropy = 0.0\nsamples = 1\nvalue = [0, 1]\nclass = Non Smoker", fillcolor="#399de5"] ;
200 -> 202 ;
203 [label="education <= 50.5\nentropy = 0.74\nsamples = 14\nvalue = [19, 5]\nclass = Smoker", fillcolor="#eca26d"] ;
141 -> 203 ;
204 [label="entropy = 0.0\nsamples = 5\nvalue = [8, 0]\nclass = Smoker", fillcolor="#e58139"] ;
203 -> 204 ;
205 [label="diaBP <= 112.0\nentropy = 0.9\nsamples = 9\nvalue = [11, 5]\nclass = Smoker", fillcolor="#f1ba93"] ;
203 -> 205 ;
206 [label="entropy = 0.0\nsamples = 1\nvalue = [0, 1]\nclass = Non Smoker", fillcolor="#399de5"] ;
205 -> 206 ;
207 [label="TenYearCHD <= 73.0\nentropy = 0.84\nsamples = 8\nvalue = [11, 4]\nclass = Smoker", fillcolor="#eeaf81"] ;
205 -> 207 ;
208 [label="glucose <= 97.5\nentropy = 0.92\nsamples = 2\nvalue = [1, 2]\nclass = Non Smoker", fillcolor="#9ccef2"] ;
207 -> 208 ;
209 [label="entropy = 0.0\nsamples = 1\nvalue = [1, 0]\nclass = Smoker", fillcolor="#e58139"] ;
208 -> 209 ;
210 [label="entropy = 0.0\nsamples = 1\nvalue = [0, 2]\nclass = Non Smoker", fillcolor="#399de5"] ;
208 -> 210 ;
211 [label="BPMeds <= 10.0\nentropy = 0.65\nsamples = 6\nvalue = [10, 2]\nclass = Smoker", fillcolor="#ea9a61"] ;
207 -> 211 ;
212 [label="entropy = 0.0\nsamples = 5\nvalue = [10, 0]\nclass = Smoker", fillcolor="#e58139"] ;
211 -> 212 ;
213 [label="entropy = 0.0\nsamples = 1\nvalue = [0, 2]\nclass = Non Smoker", fillcolor="#399de5"] ;
211 -> 213 ;
214 [label="diaBP <= 122.75\nentropy = 0.11\nsamples = 49\nvalue = [70, 1]\nclass = Smoker", fillcolor="#e5833c"] ;
140 -> 214 ;
215 [label="TenYearCHD <= 114.0\nentropy = 0.28\nsamples = 15\nvalue = [20, 1]\nclass = Smoker", fillcolor="#e68743"] ;
214 -> 215 ;
216 [label="entropy = 0.0\nsamples = 14\nvalue = [20, 0]\nclass = Smoker", fillcolor="#e58139"] ;
215 -> 216 ;
217 [label="entropy = 0.0\nsamples = 1\nvalue = [0, 1]\nclass = Non Smoker", fillcolor="#399de5"] ;
215 -> 217 ;
218 [label="entropy = 0.0\nsamples = 34\nvalue = [50, 0]\nclass = Smoker", fillcolor="#e58139"] ;
214 -> 218 ;
219 [label="TenYearCHD <= 79.0\nentropy = 0.85\nsamples = 9\nvalue = [8, 3]\nclass = Smoker", fillcolor="#efb083"] ;
81 -> 219 ;
220 [label="entropy = 0.0\nsamples = 5\nvalue = [5, 0]\nclass = Smoker", fillcolor="#e58139"] ;
219 -> 220 ;
221 [label="BPMeds <= 5.0\nentropy = 1.0\nsamples = 4\nvalue = [3, 3]\nclass = Smoker", fillcolor="#ffffff"] ;
219 -> 221 ;
222 [label="diaBP <= 123.75\nentropy = 0.81\nsamples = 2\nvalue = [1, 3]\nclass = Non Smoker", fillcolor="#7bbeee"] ;
221 -> 222 ;
223 [label="entropy = 0.0\nsamples = 1\nvalue = [1, 0]\nclass = Smoker", fillcolor="#e58139"] ;
222 -> 223 ;
224 [label="entropy = 0.0\nsamples = 1\nvalue = [0, 3]\nclass = Non Smoker", fillcolor="#399de5"] ;
222 -> 224 ;
225 [label="entropy = 0.0\nsamples = 2\nvalue = [2, 0]\nclass = Smoker", fillcolor="#e58139"] ;
221 -> 225 ;
226 [label="sysBP <= 380.5\nentropy = 0.97\nsamples = 2\nvalue = [2, 3]\nclass = Non Smoker", fillcolor="#bddef6"] ;
80 -> 226 ;
227 [label="entropy = 0.0\nsamples = 1\nvalue = [0, 3]\nclass = Non Smoker", fillcolor="#399de5"] ;
226 -> 227 ;
228 [label="entropy = 0.0\nsamples = 1\nvalue = [2, 0]\nclass = Smoker", fillcolor="#e58139"] ;
226 -> 228 ;
229 [label="BMI <= 89.25\nentropy = 0.57\nsamples = 560\nvalue = [767, 118]\nclass = Smoker", fillcolor="#e99457"] ;
1 -> 229 ;
230 [label="education <= 57.5\nentropy = 0.53\nsamples = 526\nvalue = [732, 101]\nclass = Smoker", fillcolor="#e99254"] ;
229 -> 230 ;
231 [label="TenYearCHD <= 253.5\nentropy = 0.4\nsamples = 433\nvalue = [623, 54]\nclass = Smoker", fillcolor="#e78c4a"] ;
230 -> 231 ;
232 [label="glucose <= 91.0\nentropy = 0.39\nsamples = 431\nvalue = [623, 52]\nclass = Smoker", fillcolor="#e78c4a"] ;
231 -> 232 ;
233 [label="diaBP <= 134.5\nentropy = 0.4\nsamples = 410\nvalue = [592, 52]\nclass = Smoker", fillcolor="#e78c4a"] ;
232 -> 233 ;
234 [label="TenYearCHD <= 58.5\nentropy = 0.33\nsamples = 380\nvalue = [564, 37]\nclass = Smoker", fillcolor="#e78946"] ;
233 -> 234 ;
235 [label="entropy = 0.0\nsamples = 30\nvalue = [42, 0]\nclass = Smoker", fillcolor="#e58139"] ;
234 -> 235 ;
236 [label="heartRate <= 21.23\nentropy = 0.35\nsamples = 350\nvalue = [522, 37]\nclass = Smoker", fillcolor="#e78a47"] ;
234 -> 236 ;
237 [label="BMI <= 63.75\nentropy = 0.58\nsamples = 32\nvalue = [43, 7]\nclass = Smoker", fillcolor="#e99659"] ;
236 -> 237 ;
238 [label="diaBP <= 114.0\nentropy = 0.92\nsamples = 2\nvalue = [1, 2]\nclass = Non Smoker", fillcolor="#9ccef2"] ;
237 -> 238 ;
239 [label="entropy = 0.0\nsamples = 1\nvalue = [0, 2]\nclass = Non Smoker", fillcolor="#399de5"] ;
238 -> 239 ;
240 [label="entropy = 0.0\nsamples = 1\nvalue = [1, 0]\nclass = Smoker", fillcolor="#e58139"] ;
238 -> 240 ;
241 [label="TenYearCHD <= 65.5\nentropy = 0.49\nsamples = 30\nvalue = [42, 5]\nclass = Smoker", fillcolor="#e89051"] ;
237 -> 241 ;
242 [label="entropy = 0.0\nsamples = 1\nvalue = [0, 2]\nclass = Non Smoker", fillcolor="#399de5"] ;
241 -> 242 ;
243 [label="heartRate <= 21.19\nentropy = 0.35\nsamples = 29\nvalue = [42, 3]\nclass = Smoker", fillcolor="#e78a47"] ;
241 -> 243 ;
244 [label="heartRate <= 20.34\nentropy = 0.17\nsamples = 26\nvalue = [39, 1]\nclass = Smoker", fillcolor="#e6843e"] ;
243 -> 244 ;
245 [label="entropy = 0.0\nsamples = 16\nvalue = [26, 0]\nclass = Smoker", fillcolor="#e58139"] ;
244 -> 245 ;
246 [label="TenYearCHD <= 76.5\nentropy = 0.37\nsamples = 10\nvalue = [13, 1]\nclass = Smoker", fillcolor="#e78b48"] ;
244 -> 246 ;
247 [label="currentSmoker <= 3.0\nentropy = 0.65\nsamples = 4\nvalue = [5, 1]\nclass = Smoker", fillcolor="#ea9a61"] ;
246 -> 247 ;
248 [label="glucose <= 67.5\nentropy = 1.0\nsamples = 2\nvalue = [1, 1]\nclass = Smoker", fillcolor="#ffffff"] ;
247 -> 248 ;
249 [label="entropy = 0.0\nsamples = 1\nvalue = [0, 1]\nclass = Non Smoker", fillcolor="#399de5"] ;
248 -> 249 ;
250 [label="entropy = 0.0\nsamples = 1\nvalue = [1, 0]\nclass = Smoker", fillcolor="#e58139"] ;
248 -> 250 ;
251 [label="entropy = 0.0\nsamples = 2\nvalue = [4, 0]\nclass = Smoker", fillcolor="#e58139"] ;
247 -> 251 ;
252 [label="entropy = 0.0\nsamples = 6\nvalue = [8, 0]\nclass = Smoker", fillcolor="#e58139"] ;
246 -> 252 ;
253 [label="diaBP <= 124.0\nentropy = 0.97\nsamples = 3\nvalue = [3, 2]\nclass = Smoker", fillcolor="#f6d5bd"] ;
243 -> 253 ;
254 [label="entropy = 0.0\nsamples = 2\nvalue = [3, 0]\nclass = Smoker", fillcolor="#e58139"] ;
253 -> 254 ;
255 [label="entropy = 0.0\nsamples = 1\nvalue = [0, 2]\nclass = Non Smoker", fillcolor="#399de5"] ;
253 -> 255 ;
256 [label="heartRate <= 23.26\nentropy = 0.32\nsamples = 318\nvalue = [479, 30]\nclass = Smoker", fillcolor="#e78945"] ;
236 -> 256 ;
257 [label="BPMeds <= 22.5\nentropy = 0.09\nsamples = 55\nvalue = [87, 1]\nclass = Smoker", fillcolor="#e5823b"] ;
256 -> 257 ;
258 [label="entropy = 0.0\nsamples = 42\nvalue = [67, 0]\nclass = Smoker", fillcolor="#e58139"] ;
257 -> 258 ;
259 [label="education <= 51.5\nentropy = 0.28\nsamples = 13\nvalue = [20, 1]\nclass = Smoker", fillcolor="#e68743"] ;
257 -> 259 ;
260 [label="entropy = 0.0\nsamples = 11\nvalue = [19, 0]\nclass = Smoker", fillcolor="#e58139"] ;
259 -> 260 ;
261 [label="BMI <= 72.5\nentropy = 1.0\nsamples = 2\nvalue = [1, 1]\nclass = Smoker", fillcolor="#ffffff"] ;
259 -> 261 ;
262 [label="entropy = 0.0\nsamples = 1\nvalue = [1, 0]\nclass = Smoker", fillcolor="#e58139"] ;
261 -> 262 ;
263 [label="entropy = 0.0\nsamples = 1\nvalue = [0, 1]\nclass = Non Smoker", fillcolor="#399de5"] ;
261 -> 263 ;
264 [label="BPMeds <= 32.5\nentropy = 0.36\nsamples = 263\nvalue = [392, 29]\nclass = Smoker", fillcolor="#e78a48"] ;
256 -> 264 ;
265 [label="heartRate <= 23.3\nentropy = 0.39\nsamples = 241\nvalue = [355, 29]\nclass = Smoker", fillcolor="#e78b49"] ;
264 -> 265 ;
266 [label="entropy = 0.0\nsamples = 1\nvalue = [0, 1]\nclass = Non Smoker", fillcolor="#399de5"] ;
265 -> 266 ;
267 [label="currentSmoker <= 2.5\nentropy = 0.38\nsamples = 240\nvalue = [355, 28]\nclass = Smoker", fillcolor="#e78b49"] ;
265 -> 267 ;
268 [label="BMI <= 87.75\nentropy = 0.42\nsamples = 170\nvalue = [244, 23]\nclass = Smoker", fillcolor="#e78d4c"] ;
267 -> 268 ;
269 [label="TenYearCHD <= 83.5\nentropy = 0.39\nsamples = 162\nvalue = [237, 20]\nclass = Smoker", fillcolor="#e78c4a"] ;
268 -> 269 ;
270 [label="BPMeds <= 18.5\nentropy = 0.45\nsamples = 115\nvalue = [163, 17]\nclass = Smoker", fillcolor="#e88e4e"] ;
269 -> 270 ;
271 [label="currentSmoker <= 1.51\nentropy = 0.31\nsamples = 66\nvalue = [100, 6]\nclass = Smoker", fillcolor="#e78945"] ;
270 -> 271 ;
272 [label="diaBP <= 120.5\nentropy = 0.23\nsamples = 34\nvalue = [51, 2]\nclass = Smoker", fillcolor="#e68641"] ;
271 -> 272 ;
273 [label="diaBP <= 115.5\nentropy = 0.38\nsamples = 21\nvalue = [25, 2]\nclass = Smoker", fillcolor="#e78b49"] ;
272 -> 273 ;
274 [label="entropy = 0.0\nsamples = 13\nvalue = [17, 0]\nclass = Smoker", fillcolor="#e58139"] ;
273 -> 274 ;
275 [label="TenYearCHD <= 70.5\nentropy = 0.72\nsamples = 8\nvalue = [8, 2]\nclass = Smoker", fillcolor="#eca06a"] ;
273 -> 275 ;
276 [label="entropy = 0.0\nsamples = 3\nvalue = [4, 0]\nclass = Smoker", fillcolor="#e58139"] ;
275 -> 276 ;
277 [label="BPMeds <= 2.0\nentropy = 0.92\nsamples = 5\nvalue = [4, 2]\nclass = Smoker", fillcolor="#f2c09c"] ;
275 -> 277 ;
278 [label="BMI <= 81.75\nentropy = 0.72\nsamples = 4\nvalue = [4, 1]\nclass = Smoker", fillcolor="#eca06a"] ;
277 -> 278 ;
279 [label="heartRate <= 27.8\nentropy = 1.0\nsamples = 2\nvalue = [1, 1]\nclass = Smoker", fillcolor="#ffffff"] ;
278 -> 279 ;
280 [label="entropy = 0.0\nsamples = 1\nvalue = [1, 0]\nclass = Smoker", fillcolor="#e58139"] ;
279 -> 280 ;
281 [label="entropy = 0.0\nsamples = 1\nvalue = [0, 1]\nclass = Non Smoker", fillcolor="#399de5"] ;
279 -> 281 ;
282 [label="entropy = 0.0\nsamples = 2\nvalue = [3, 0]\nclass = Smoker", fillcolor="#e58139"] ;
278 -> 282 ;
283 [label="entropy = 0.0\nsamples = 1\nvalue = [0, 1]\nclass = Non Smoker", fillcolor="#399de5"] ;
277 -> 283 ;
284 [label="entropy = 0.0\nsamples = 13\nvalue = [26, 0]\nclass = Smoker", fillcolor="#e58139"] ;
272 -> 284 ;
285 [label="heartRate <= 32.77\nentropy = 0.39\nsamples = 32\nvalue = [49, 4]\nclass = Smoker", fillcolor="#e78b49"] ;
271 -> 285 ;
286 [label="education <= 42.5\nentropy = 0.32\nsamples = 31\nvalue = [49, 3]\nclass = Smoker", fillcolor="#e78945"] ;
285 -> 286 ;
287 [label="entropy = 0.0\nsamples = 12\nvalue = [21, 0]\nclass = Smoker", fillcolor="#e58139"] ;
286 -> 287 ;
288 [label="sysBP <= 235.5\nentropy = 0.46\nsamples = 19\nvalue = [28, 3]\nclass = Smoker", fillcolor="#e88e4e"] ;
286 -> 288 ;
289 [label="BPMeds <= 1.5\nentropy = 0.67\nsamples = 11\nvalue = [14, 3]\nclass = Smoker", fillcolor="#eb9c63"] ;
288 -> 289 ;
290 [label="glucose <= 61.0\nentropy = 0.75\nsamples = 8\nvalue = [11, 3]\nclass = Smoker", fillcolor="#eca36f"] ;
289 -> 290 ;
291 [label="diaBP <= 112.5\nentropy = 0.92\nsamples = 2\nvalue = [1, 2]\nclass = Non Smoker", fillcolor="#9ccef2"] ;
290 -> 291 ;
292 [label="entropy = 0.0\nsamples = 1\nvalue = [0, 2]\nclass = Non Smoker", fillcolor="#399de5"] ;
291 -> 292 ;
293 [label="entropy = 0.0\nsamples = 1\nvalue = [1, 0]\nclass = Smoker", fillcolor="#e58139"] ;
291 -> 293 ;
294 [label="sysBP <= 227.0\nentropy = 0.44\nsamples = 6\nvalue = [10, 1]\nclass = Smoker", fillcolor="#e88e4d"] ;
290 -> 294 ;
295 [label="entropy = 0.0\nsamples = 5\nvalue = [10, 0]\nclass = Smoker", fillcolor="#e58139"] ;
294 -> 295 ;
296 [label="entropy = 0.0\nsamples = 1\nvalue = [0, 1]\nclass = Non Smoker", fillcolor="#399de5"] ;
294 -> 296 ;
297 [label="entropy = 0.0\nsamples = 3\nvalue = [3, 0]\nclass = Smoker", fillcolor="#e58139"] ;
289 -> 297 ;
298 [label="entropy = 0.0\nsamples = 8\nvalue = [14, 0]\nclass = Smoker", fillcolor="#e58139"] ;
288 -> 298 ;
299 [label="entropy = 0.0\nsamples = 1\nvalue = [0, 1]\nclass = Non Smoker", fillcolor="#399de5"] ;
285 -> 299 ;
300 [label="BMI <= 79.5\nentropy = 0.61\nsamples = 49\nvalue = [63, 11]\nclass = Smoker", fillcolor="#ea975c"] ;
270 -> 300 ;
301 [label="diaBP <= 130.75\nentropy = 0.85\nsamples = 28\nvalue = [26, 10]\nclass = Smoker", fillcolor="#efb185"] ;
300 -> 301 ;
302 [label="BPMeds <= 25.0\nentropy = 0.82\nsamples = 27\nvalue = [26, 9]\nclass = Smoker", fillcolor="#eead7e"] ;
301 -> 302 ;
303 [label="education <= 56.5\nentropy = 0.75\nsamples = 21\nvalue = [22, 6]\nclass = Smoker", fillcolor="#eca36f"] ;
302 -> 303 ;
304 [label="glucose <= 86.5\nentropy = 0.62\nsamples = 20\nvalue = [22, 4]\nclass = Smoker", fillcolor="#ea985d"] ;
303 -> 304 ;
305 [label="sysBP <= 217.5\nentropy = 0.53\nsamples = 19\nvalue = [22, 3]\nclass = Smoker", fillcolor="#e99254"] ;
304 -> 305 ;
306 [label="TenYearCHD <= 75.5\nentropy = 0.88\nsamples = 8\nvalue = [7, 3]\nclass = Smoker", fillcolor="#f0b78e"] ;
305 -> 306 ;
307 [label="entropy = 0.0\nsamples = 4\nvalue = [6, 0]\nclass = Smoker", fillcolor="#e58139"] ;
306 -> 307 ;
308 [label="heartRate <= 25.8\nentropy = 0.81\nsamples = 4\nvalue = [1, 3]\nclass = Non Smoker", fillcolor="#7bbeee"] ;
306 -> 308 ;
309 [label="entropy = 0.0\nsamples = 3\nvalue = [0, 3]\nclass = Non Smoker", fillcolor="#399de5"] ;
308 -> 309 ;
310 [label="entropy = 0.0\nsamples = 1\nvalue = [1, 0]\nclass = Smoker", fillcolor="#e58139"] ;
308 -> 310 ;
311 [label="entropy = 0.0\nsamples = 11\nvalue = [15, 0]\nclass = Smoker", fillcolor="#e58139"] ;
305 -> 311 ;
312 [label="entropy = 0.0\nsamples = 1\nvalue = [0, 1]\nclass = Non Smoker", fillcolor="#399de5"] ;
304 -> 312 ;
313 [label="entropy = 0.0\nsamples = 1\nvalue = [0, 2]\nclass = Non Smoker", fillcolor="#399de5"] ;
303 -> 313 ;
314 [label="heartRate <= 27.37\nentropy = 0.99\nsamples = 6\nvalue = [4, 3]\nclass = Smoker", fillcolor="#f8e0ce"] ;
302 -> 314 ;
315 [label="education <= 48.0\nentropy = 0.92\nsamples = 5\nvalue = [4, 2]\nclass = Smoker", fillcolor="#f2c09c"] ;
314 -> 315 ;
316 [label="TenYearCHD <= 68.0\nentropy = 0.92\nsamples = 3\nvalue = [1, 2]\nclass = Non Smoker", fillcolor="#9ccef2"] ;
315 -> 316 ;
317 [label="entropy = 0.0\nsamples = 1\nvalue = [0, 1]\nclass = Non Smoker", fillcolor="#399de5"] ;
316 -> 317 ;
318 [label="BMI <= 74.5\nentropy = 1.0\nsamples = 2\nvalue = [1, 1]\nclass = Smoker", fillcolor="#ffffff"] ;
316 -> 318 ;
319 [label="entropy = 0.0\nsamples = 1\nvalue = [1, 0]\nclass = Smoker", fillcolor="#e58139"] ;
318 -> 319 ;
320 [label="entropy = 0.0\nsamples = 1\nvalue = [0, 1]\nclass = Non Smoker", fillcolor="#399de5"] ;
318 -> 320 ;
321 [label="entropy = 0.0\nsamples = 2\nvalue = [3, 0]\nclass = Smoker", fillcolor="#e58139"] ;
315 -> 321 ;
322 [label="entropy = 0.0\nsamples = 1\nvalue = [0, 1]\nclass = Non Smoker", fillcolor="#399de5"] ;
314 -> 322 ;
323 [label="entropy = 0.0\nsamples = 1\nvalue = [0, 1]\nclass = Non Smoker", fillcolor="#399de5"] ;
301 -> 323 ;
324 [label="diaBP <= 127.0\nentropy = 0.18\nsamples = 21\nvalue = [37, 1]\nclass = Smoker", fillcolor="#e6843e"] ;
300 -> 324 ;
325 [label="sysBP <= 262.0\nentropy = 0.34\nsamples = 10\nvalue = [15, 1]\nclass = Smoker", fillcolor="#e78946"] ;
324 -> 325 ;
326 [label="entropy = 0.0\nsamples = 6\nvalue = [11, 0]\nclass = Smoker", fillcolor="#e58139"] ;
325 -> 326 ;
327 [label="TenYearCHD <= 76.5\nentropy = 0.72\nsamples = 4\nvalue = [4, 1]\nclass = Smoker", fillcolor="#eca06a"] ;
325 -> 327 ;
328 [label="entropy = 0.0\nsamples = 1\nvalue = [1, 0]\nclass = Smoker", fillcolor="#e58139"] ;
327 -> 328 ;
329 [label="sysBP <= 264.5\nentropy = 0.81\nsamples = 3\nvalue = [3, 1]\nclass = Smoker", fillcolor="#eeab7b"] ;
327 -> 329 ;
330 [label="entropy = 0.0\nsamples = 1\nvalue = [0, 1]\nclass = Non Smoker", fillcolor="#399de5"] ;
329 -> 330 ;
331 [label="entropy = 0.0\nsamples = 2\nvalue = [3, 0]\nclass = Smoker", fillcolor="#e58139"] ;
329 -> 331 ;
332 [label="entropy = 0.0\nsamples = 11\nvalue = [22, 0]\nclass = Smoker", fillcolor="#e58139"] ;
324 -> 332 ;
333 [label="glucose <= 76.5\nentropy = 0.24\nsamples = 47\nvalue = [74, 3]\nclass = Smoker", fillcolor="#e68641"] ;
269 -> 333 ;
334 [label="entropy = 0.0\nsamples = 35\nvalue = [53, 0]\nclass = Smoker", fillcolor="#e58139"] ;
333 -> 334 ;
335 [label="sysBP <= 237.0\nentropy = 0.54\nsamples = 12\nvalue = [21, 3]\nclass = Smoker", fillcolor="#e99355"] ;
333 -> 335 ;
336 [label="entropy = 0.0\nsamples = 8\nvalue = [16, 0]\nclass = Smoker", fillcolor="#e58139"] ;
335 -> 336 ;
337 [label="education <= 38.0\nentropy = 0.95\nsamples = 4\nvalue = [5, 3]\nclass = Smoker", fillcolor="#f5cdb0"] ;
335 -> 337 ;
338 [label="entropy = 0.0\nsamples = 1\nvalue = [0, 3]\nclass = Non Smoker", fillcolor="#399de5"] ;
337 -> 338 ;
339 [label="entropy = 0.0\nsamples = 3\nvalue = [5, 0]\nclass = Smoker", fillcolor="#e58139"] ;
337 -> 339 ;
340 [label="TenYearCHD <= 75.5\nentropy = 0.88\nsamples = 8\nvalue = [7, 3]\nclass = Smoker", fillcolor="#f0b78e"] ;
268 -> 340 ;
341 [label="entropy = 0.0\nsamples = 3\nvalue = [4, 0]\nclass = Smoker", fillcolor="#e58139"] ;
340 -> 341 ;
342 [label="TenYearCHD <= 81.5\nentropy = 1.0\nsamples = 5\nvalue = [3, 3]\nclass = Smoker", fillcolor="#ffffff"] ;
340 -> 342 ;
343 [label="entropy = 0.0\nsamples = 2\nvalue = [0, 3]\nclass = Non Smoker", fillcolor="#399de5"] ;
342 -> 343 ;
344 [label="entropy = 0.0\nsamples = 3\nvalue = [3, 0]\nclass = Smoker", fillcolor="#e58139"] ;
342 -> 344 ;
345 [label="heartRate <= 25.95\nentropy = 0.26\nsamples = 70\nvalue = [111, 5]\nclass = Smoker", fillcolor="#e68742"] ;
267 -> 345 ;
346 [label="entropy = 0.0\nsamples = 28\nvalue = [50, 0]\nclass = Smoker", fillcolor="#e58139"] ;
345 -> 346 ;
347 [label="education <= 39.5\nentropy = 0.39\nsamples = 42\nvalue = [61, 5]\nclass = Smoker", fillcolor="#e78b49"] ;
345 -> 347 ;
348 [label="diaBP <= 118.5\nentropy = 0.75\nsamples = 9\nvalue = [11, 3]\nclass = Smoker", fillcolor="#eca36f"] ;
347 -> 348 ;
349 [label="BMI <= 71.25\nentropy = 0.95\nsamples = 5\nvalue = [5, 3]\nclass = Smoker", fillcolor="#f5cdb0"] ;
348 -> 349 ;
350 [label="entropy = 0.0\nsamples = 2\nvalue = [4, 0]\nclass = Smoker", fillcolor="#e58139"] ;
349 -> 350 ;
351 [label="heartRate <= 26.94\nentropy = 0.81\nsamples = 3\nvalue = [1, 3]\nclass = Non Smoker", fillcolor="#7bbeee"] ;
349 -> 351 ;
352 [label="entropy = 0.0\nsamples = 1\nvalue = [0, 2]\nclass = Non Smoker", fillcolor="#399de5"] ;
351 -> 352 ;
353 [label="glucose <= 80.5\nentropy = 1.0\nsamples = 2\nvalue = [1, 1]\nclass = Smoker", fillcolor="#ffffff"] ;
351 -> 353 ;
354 [label="entropy = 0.0\nsamples = 1\nvalue = [1, 0]\nclass = Smoker", fillcolor="#e58139"] ;
353 -> 354 ;
355 [label="entropy = 0.0\nsamples = 1\nvalue = [0, 1]\nclass = Non Smoker", fillcolor="#399de5"] ;
353 -> 355 ;
356 [label="entropy = 0.0\nsamples = 4\nvalue = [6, 0]\nclass = Smoker", fillcolor="#e58139"] ;
348 -> 356 ;
357 [label="sysBP <= 222.5\nentropy = 0.24\nsamples = 33\nvalue = [50, 2]\nclass = Smoker", fillcolor="#e68641"] ;
347 -> 357 ;
358 [label="currentSmoker <= 3.5\nentropy = 0.38\nsamples = 19\nvalue = [25, 2]\nclass = Smoker", fillcolor="#e78b49"] ;
357 -> 358 ;
359 [label="entropy = 0.0\nsamples = 8\nvalue = [9, 0]\nclass = Smoker", fillcolor="#e58139"] ;
358 -> 359 ;
360 [label="heartRate <= 29.23\nentropy = 0.5\nsamples = 11\nvalue = [16, 2]\nclass = Smoker", fillcolor="#e89152"] ;
358 -> 360 ;
361 [label="glucose <= 77.0\nentropy = 0.32\nsamples = 10\nvalue = [16, 1]\nclass = Smoker", fillcolor="#e78945"] ;
360 -> 361 ;
362 [label="entropy = 0.0\nsamples = 8\nvalue = [14, 0]\nclass = Smoker", fillcolor="#e58139"] ;
361 -> 362 ;
363 [label="sysBP <= 216.5\nentropy = 0.92\nsamples = 2\nvalue = [2, 1]\nclass = Smoker", fillcolor="#f2c09c"] ;
361 -> 363 ;
364 [label="entropy = 0.0\nsamples = 1\nvalue = [2, 0]\nclass = Smoker", fillcolor="#e58139"] ;
363 -> 364 ;
365 [label="entropy = 0.0\nsamples = 1\nvalue = [0, 1]\nclass = Non Smoker", fillcolor="#399de5"] ;
363 -> 365 ;
366 [label="entropy = 0.0\nsamples = 1\nvalue = [0, 1]\nclass = Non Smoker", fillcolor="#399de5"] ;
360 -> 366 ;
367 [label="entropy = 0.0\nsamples = 14\nvalue = [25, 0]\nclass = Smoker", fillcolor="#e58139"] ;
357 -> 367 ;
368 [label="entropy = 0.0\nsamples = 22\nvalue = [37, 0]\nclass = Smoker", fillcolor="#e58139"] ;
264 -> 368 ;
369 [label="currentSmoker <= 3.5\nentropy = 0.93\nsamples = 30\nvalue = [28, 15]\nclass = Smoker", fillcolor="#f3c4a3"] ;
233 -> 369 ;
370 [label="cigsPerDay <= 0.5\nentropy = 0.97\nsamples = 26\nvalue = [23, 15]\nclass = Smoker", fillcolor="#f6d3ba"] ;
369 -> 370 ;
371 [label="heartRate <= 24.68\nentropy = 1.0\nsamples = 11\nvalue = [8, 9]\nclass = Non Smoker", fillcolor="#e9f4fc"] ;
370 -> 371 ;
372 [label="entropy = 0.0\nsamples = 2\nvalue = [0, 6]\nclass = Non Smoker", fillcolor="#399de5"] ;
371 -> 372 ;
373 [label="sysBP <= 258.5\nentropy = 0.85\nsamples = 9\nvalue = [8, 3]\nclass = Smoker", fillcolor="#efb083"] ;
371 -> 373 ;
374 [label="entropy = 0.0\nsamples = 7\nvalue = [7, 0]\nclass = Smoker", fillcolor="#e58139"] ;
373 -> 374 ;
375 [label="education <= 49.5\nentropy = 0.81\nsamples = 2\nvalue = [1, 3]\nclass = Non Smoker", fillcolor="#7bbeee"] ;
373 -> 375 ;
376 [label="entropy = 0.0\nsamples = 1\nvalue = [0, 3]\nclass = Non Smoker", fillcolor="#399de5"] ;
375 -> 376 ;
377 [label="entropy = 0.0\nsamples = 1\nvalue = [1, 0]\nclass = Smoker", fillcolor="#e58139"] ;
375 -> 377 ;
378 [label="sysBP <= 246.0\nentropy = 0.86\nsamples = 15\nvalue = [15, 6]\nclass = Smoker", fillcolor="#efb388"] ;
370 -> 378 ;
379 [label="entropy = 0.0\nsamples = 8\nvalue = [10, 0]\nclass = Smoker", fillcolor="#e58139"] ;
378 -> 379 ;
380 [label="heartRate <= 27.11\nentropy = 0.99\nsamples = 7\nvalue = [5, 6]\nclass = Non Smoker", fillcolor="#deeffb"] ;
378 -> 380 ;
381 [label="BPMeds <= 30.0\nentropy = 0.86\nsamples = 5\nvalue = [5, 2]\nclass = Smoker", fillcolor="#efb388"] ;
380 -> 381 ;
382 [label="entropy = 0.0\nsamples = 3\nvalue = [5, 0]\nclass = Smoker", fillcolor="#e58139"] ;
381 -> 382 ;
383 [label="entropy = 0.0\nsamples = 2\nvalue = [0, 2]\nclass = Non Smoker", fillcolor="#399de5"] ;
381 -> 383 ;
384 [label="entropy = 0.0\nsamples = 2\nvalue = [0, 4]\nclass = Non Smoker", fillcolor="#399de5"] ;
380 -> 384 ;
385 [label="entropy = 0.0\nsamples = 4\nvalue = [5, 0]\nclass = Smoker", fillcolor="#e58139"] ;
369 -> 385 ;
386 [label="entropy = 0.0\nsamples = 21\nvalue = [31, 0]\nclass = Smoker", fillcolor="#e58139"] ;
232 -> 386 ;
387 [label="entropy = 0.0\nsamples = 2\nvalue = [0, 2]\nclass = Non Smoker", fillcolor="#399de5"] ;
231 -> 387 ;
388 [label="TenYearCHD <= 52.0\nentropy = 0.88\nsamples = 93\nvalue = [109, 47]\nclass = Smoker", fillcolor="#f0b78e"] ;
230 -> 388 ;
389 [label="entropy = 0.0\nsamples = 3\nvalue = [8, 0]\nclass = Smoker", fillcolor="#e58139"] ;
388 -> 389 ;
390 [label="BMI <= 84.5\nentropy = 0.9\nsamples = 90\nvalue = [101, 47]\nclass = Smoker", fillcolor="#f1bc95"] ;
388 -> 390 ;
391 [label="heartRate <= 29.39\nentropy = 0.95\nsamples = 80\nvalue = [82, 47]\nclass = Smoker", fillcolor="#f4c9aa"] ;
390 -> 391 ;
392 [label="BMI <= 83.5\nentropy = 0.97\nsamples = 71\nvalue = [71, 47]\nclass = Smoker", fillcolor="#f6d4bc"] ;
391 -> 392 ;
393 [label="glucose <= 83.5\nentropy = 0.95\nsamples = 67\nvalue = [70, 40]\nclass = Smoker", fillcolor="#f4c9aa"] ;
392 -> 393 ;
394 [label="TenYearCHD <= 68.5\nentropy = 0.97\nsamples = 62\nvalue = [61, 40]\nclass = Smoker", fillcolor="#f6d4bb"] ;
393 -> 394 ;
395 [label="BMI <= 80.75\nentropy = 0.92\nsamples = 11\nvalue = [6, 12]\nclass = Non Smoker", fillcolor="#9ccef2"] ;
394 -> 395 ;
396 [label="education <= 61.5\nentropy = 0.72\nsamples = 9\nvalue = [3, 12]\nclass = Non Smoker", fillcolor="#6ab6ec"] ;
395 -> 396 ;
397 [label="entropy = 0.0\nsamples = 4\nvalue = [0, 7]\nclass = Non Smoker", fillcolor="#399de5"] ;
396 -> 397 ;
398 [label="BPMeds <= 12.5\nentropy = 0.95\nsamples = 5\nvalue = [3, 5]\nclass = Non Smoker", fillcolor="#b0d8f5"] ;
396 -> 398 ;
399 [label="entropy = 0.0\nsamples = 2\nvalue = [2, 0]\nclass = Smoker", fillcolor="#e58139"] ;
398 -> 399 ;
400 [label="glucose <= 69.5\nentropy = 0.65\nsamples = 3\nvalue = [1, 5]\nclass = Non Smoker", fillcolor="#61b1ea"] ;
398 -> 400 ;
401 [label="BMI <= 59.0\nentropy = 0.92\nsamples = 2\nvalue = [1, 2]\nclass = Non Smoker", fillcolor="#9ccef2"] ;
400 -> 401 ;
402 [label="entropy = 0.0\nsamples = 1\nvalue = [0, 2]\nclass = Non Smoker", fillcolor="#399de5"] ;
401 -> 402 ;
403 [label="entropy = 0.0\nsamples = 1\nvalue = [1, 0]\nclass = Smoker", fillcolor="#e58139"] ;
401 -> 403 ;
404 [label="entropy = 0.0\nsamples = 1\nvalue = [0, 3]\nclass = Non Smoker", fillcolor="#399de5"] ;
400 -> 404 ;
405 [label="entropy = 0.0\nsamples = 2\nvalue = [3, 0]\nclass = Smoker", fillcolor="#e58139"] ;
395 -> 405 ;
406 [label="sysBP <= 179.5\nentropy = 0.92\nsamples = 51\nvalue = [55, 28]\nclass = Smoker", fillcolor="#f2c19e"] ;
394 -> 406 ;
407 [label="entropy = 0.0\nsamples = 5\nvalue = [8, 0]\nclass = Smoker", fillcolor="#e58139"] ;
406 -> 407 ;
408 [label="glucose <= 73.5\nentropy = 0.95\nsamples = 46\nvalue = [47, 28]\nclass = Smoker", fillcolor="#f4ccaf"] ;
406 -> 408 ;
409 [label="glucose <= 70.5\nentropy = 0.9\nsamples = 33\nvalue = [37, 17]\nclass = Smoker", fillcolor="#f1bb94"] ;
408 -> 409 ;
410 [label="TenYearCHD <= 99.5\nentropy = 0.94\nsamples = 30\nvalue = [31, 17]\nclass = Smoker", fillcolor="#f3c6a6"] ;
409 -> 410 ;
411 [label="BMI <= 67.75\nentropy = 0.89\nsamples = 29\nvalue = [31, 14]\nclass = Smoker", fillcolor="#f1ba92"] ;
410 -> 411 ;
412 [label="entropy = 0.0\nsamples = 4\nvalue = [5, 0]\nclass = Smoker", fillcolor="#e58139"] ;
411 -> 412 ;
413 [label="heartRate <= 28.91\nentropy = 0.93\nsamples = 25\nvalue = [26, 14]\nclass = Smoker", fillcolor="#f3c5a4"] ;
411 -> 413 ;
414 [label="heartRate <= 26.89\nentropy = 0.9\nsamples = 24\nvalue = [26, 12]\nclass = Smoker", fillcolor="#f1bb94"] ;
413 -> 414 ;
415 [label="TenYearCHD <= 85.0\nentropy = 0.99\nsamples = 18\nvalue = [16, 12]\nclass = Smoker", fillcolor="#f8e0ce"] ;
414 -> 415 ;
416 [label="glucose <= 56.5\nentropy = 0.99\nsamples = 14\nvalue = [10, 12]\nclass = Non Smoker", fillcolor="#deeffb"] ;
415 -> 416 ;
417 [label="entropy = 0.0\nsamples = 1\nvalue = [0, 3]\nclass = Non Smoker", fillcolor="#399de5"] ;
416 -> 417 ;
418 [label="education <= 66.0\nentropy = 1.0\nsamples = 13\nvalue = [10, 9]\nclass = Smoker", fillcolor="#fcf2eb"] ;
416 -> 418 ;
419 [label="diaBP <= 130.5\nentropy = 0.95\nsamples = 11\nvalue = [10, 6]\nclass = Smoker", fillcolor="#f5cdb0"] ;
418 -> 419 ;
420 [label="diaBP <= 128.25\nentropy = 0.92\nsamples = 10\nvalue = [10, 5]\nclass = Smoker", fillcolor="#f2c09c"] ;
419 -> 420 ;
421 [label="heartRate <= 22.51\nentropy = 1.0\nsamples = 8\nvalue = [5, 5]\nclass = Smoker", fillcolor="#ffffff"] ;
420 -> 421 ;
422 [label="entropy = 0.0\nsamples = 1\nvalue = [1, 0]\nclass = Smoker", fillcolor="#e58139"] ;
421 -> 422 ;
423 [label="glucose <= 59.0\nentropy = 0.99\nsamples = 7\nvalue = [4, 5]\nclass = Non Smoker", fillcolor="#d7ebfa"] ;
421 -> 423 ;
424 [label="entropy = 0.0\nsamples = 1\nvalue = [1, 0]\nclass = Smoker", fillcolor="#e58139"] ;
423 -> 424 ;
425 [label="education <= 59.5\nentropy = 0.95\nsamples = 6\nvalue = [3, 5]\nclass = Non Smoker", fillcolor="#b0d8f5"] ;
423 -> 425 ;
426 [label="entropy = 0.0\nsamples = 1\nvalue = [2, 0]\nclass = Smoker", fillcolor="#e58139"] ;
425 -> 426 ;
427 [label="BPMeds <= 10.0\nentropy = 0.65\nsamples = 5\nvalue = [1, 5]\nclass = Non Smoker", fillcolor="#61b1ea"] ;
425 -> 427 ;
428 [label="glucose <= 62.0\nentropy = 0.81\nsamples = 4\nvalue = [1, 3]\nclass = Non Smoker", fillcolor="#7bbeee"] ;
427 -> 428 ;
429 [label="BMI <= 78.0\nentropy = 1.0\nsamples = 2\nvalue = [1, 1]\nclass = Smoker", fillcolor="#ffffff"] ;
428 -> 429 ;
430 [label="entropy = 0.0\nsamples = 1\nvalue = [1, 0]\nclass = Smoker", fillcolor="#e58139"] ;
429 -> 430 ;
431 [label="entropy = 0.0\nsamples = 1\nvalue = [0, 1]\nclass = Non Smoker", fillcolor="#399de5"] ;
429 -> 431 ;
432 [label="entropy = 0.0\nsamples = 2\nvalue = [0, 2]\nclass = Non Smoker", fillcolor="#399de5"] ;
428 -> 432 ;
433 [label="entropy = 0.0\nsamples = 1\nvalue = [0, 2]\nclass = Non Smoker", fillcolor="#399de5"] ;
427 -> 433 ;
434 [label="entropy = 0.0\nsamples = 2\nvalue = [5, 0]\nclass = Smoker", fillcolor="#e58139"] ;
420 -> 434 ;
435 [label="entropy = 0.0\nsamples = 1\nvalue = [0, 1]\nclass = Non Smoker", fillcolor="#399de5"] ;
419 -> 435 ;
436 [label="entropy = 0.0\nsamples = 2\nvalue = [0, 3]\nclass = Non Smoker", fillcolor="#399de5"] ;
418 -> 436 ;
437 [label="entropy = 0.0\nsamples = 4\nvalue = [6, 0]\nclass = Smoker", fillcolor="#e58139"] ;
415 -> 437 ;
438 [label="entropy = 0.0\nsamples = 6\nvalue = [10, 0]\nclass = Smoker", fillcolor="#e58139"] ;
414 -> 438 ;
439 [label="entropy = 0.0\nsamples = 1\nvalue = [0, 2]\nclass = Non Smoker", fillcolor="#399de5"] ;
413 -> 439 ;
440 [label="entropy = 0.0\nsamples = 1\nvalue = [0, 3]\nclass = Non Smoker", fillcolor="#399de5"] ;
410 -> 440 ;
441 [label="entropy = 0.0\nsamples = 3\nvalue = [6, 0]\nclass = Smoker", fillcolor="#e58139"] ;
409 -> 441 ;
442 [label="glucose <= 81.0\nentropy = 1.0\nsamples = 13\nvalue = [10, 11]\nclass = Non Smoker", fillcolor="#edf6fd"] ;
408 -> 442 ;
443 [label="heartRate <= 22.23\nentropy = 1.0\nsamples = 12\nvalue = [10, 10]\nclass = Smoker", fillcolor="#ffffff"] ;
442 -> 443 ;
444 [label="heartRate <= 20.59\nentropy = 0.81\nsamples = 5\nvalue = [6, 2]\nclass = Smoker", fillcolor="#eeab7b"] ;
443 -> 444 ;
445 [label="glucose <= 76.0\nentropy = 0.92\nsamples = 2\nvalue = [1, 2]\nclass = Non Smoker", fillcolor="#9ccef2"] ;
444 -> 445 ;
446 [label="entropy = 0.0\nsamples = 1\nvalue = [1, 0]\nclass = Smoker", fillcolor="#e58139"] ;
445 -> 446 ;
447 [label="entropy = 0.0\nsamples = 1\nvalue = [0, 2]\nclass = Non Smoker", fillcolor="#399de5"] ;
445 -> 447 ;
448 [label="entropy = 0.0\nsamples = 3\nvalue = [5, 0]\nclass = Smoker", fillcolor="#e58139"] ;
444 -> 448 ;
449 [label="BMI <= 76.0\nentropy = 0.92\nsamples = 7\nvalue = [4, 8]\nclass = Non Smoker", fillcolor="#9ccef2"] ;
443 -> 449 ;
450 [label="BMI <= 72.25\nentropy = 0.72\nsamples = 6\nvalue = [2, 8]\nclass = Non Smoker", fillcolor="#6ab6ec"] ;
449 -> 450 ;
451 [label="education <= 63.5\nentropy = 0.86\nsamples = 4\nvalue = [2, 5]\nclass = Non Smoker", fillcolor="#88c4ef"] ;
450 -> 451 ;
452 [label="entropy = 0.0\nsamples = 2\nvalue = [2, 0]\nclass = Smoker", fillcolor="#e58139"] ;
451 -> 452 ;
453 [label="entropy = 0.0\nsamples = 2\nvalue = [0, 5]\nclass = Non Smoker", fillcolor="#399de5"] ;
451 -> 453 ;
454 [label="entropy = 0.0\nsamples = 2\nvalue = [0, 3]\nclass = Non Smoker", fillcolor="#399de5"] ;
450 -> 454 ;
455 [label="entropy = 0.0\nsamples = 1\nvalue = [2, 0]\nclass = Smoker", fillcolor="#e58139"] ;
449 -> 455 ;
456 [label="entropy = 0.0\nsamples = 1\nvalue = [0, 1]\nclass = Non Smoker", fillcolor="#399de5"] ;
442 -> 456 ;
457 [label="entropy = 0.0\nsamples = 5\nvalue = [9, 0]\nclass = Smoker", fillcolor="#e58139"] ;
393 -> 457 ;
458 [label="TenYearCHD <= 72.0\nentropy = 0.54\nsamples = 4\nvalue = [1, 7]\nclass = Non Smoker", fillcolor="#55abe9"] ;
392 -> 458 ;
459 [label="entropy = 0.0\nsamples = 1\nvalue = [1, 0]\nclass = Smoker", fillcolor="#e58139"] ;
458 -> 459 ;
460 [label="entropy = 0.0\nsamples = 3\nvalue = [0, 7]\nclass = Non Smoker", fillcolor="#399de5"] ;
458 -> 460 ;
461 [label="entropy = 0.0\nsamples = 9\nvalue = [11, 0]\nclass = Smoker", fillcolor="#e58139"] ;
391 -> 461 ;
462 [label="entropy = 0.0\nsamples = 10\nvalue = [19, 0]\nclass = Smoker", fillcolor="#e58139"] ;
390 -> 462 ;
463 [label="BPMeds <= 7.5\nentropy = 0.91\nsamples = 34\nvalue = [35, 17]\nclass = Smoker", fillcolor="#f2be99"] ;
229 -> 463 ;
464 [label="heartRate <= 27.48\nentropy = 0.47\nsamples = 15\nvalue = [18, 2]\nclass = Smoker", fillcolor="#e88f4f"] ;
463 -> 464 ;
465 [label="entropy = 0.0\nsamples = 7\nvalue = [9, 0]\nclass = Smoker", fillcolor="#e58139"] ;
464 -> 465 ;
466 [label="diaBP <= 145.0\nentropy = 0.68\nsamples = 8\nvalue = [9, 2]\nclass = Smoker", fillcolor="#eb9d65"] ;
464 -> 466 ;
467 [label="BMI <= 93.75\nentropy = 1.0\nsamples = 4\nvalue = [2, 2]\nclass = Smoker", fillcolor="#ffffff"] ;
466 -> 467 ;
468 [label="entropy = 0.0\nsamples = 2\nvalue = [2, 0]\nclass = Smoker", fillcolor="#e58139"] ;
467 -> 468 ;
469 [label="entropy = 0.0\nsamples = 2\nvalue = [0, 2]\nclass = Non Smoker", fillcolor="#399de5"] ;
467 -> 469 ;
470 [label="entropy = 0.0\nsamples = 4\nvalue = [7, 0]\nclass = Smoker", fillcolor="#e58139"] ;
466 -> 470 ;
471 [label="prevalentStroke <= 0.08\nentropy = 1.0\nsamples = 19\nvalue = [17, 15]\nclass = Smoker", fillcolor="#fcf0e8"] ;
463 -> 471 ;
472 [label="diaBP <= 129.5\nentropy = 0.99\nsamples = 18\nvalue = [17, 14]\nclass = Smoker", fillcolor="#fae9dc"] ;
471 -> 472 ;
473 [label="entropy = 0.0\nsamples = 3\nvalue = [8, 0]\nclass = Smoker", fillcolor="#e58139"] ;
472 -> 473 ;
474 [label="sysBP <= 195.0\nentropy = 0.97\nsamples = 15\nvalue = [9, 14]\nclass = Non Smoker", fillcolor="#b8dcf6"] ;
472 -> 474 ;
475 [label="entropy = 0.0\nsamples = 2\nvalue = [0, 5]\nclass = Non Smoker", fillcolor="#399de5"] ;
474 -> 475 ;
476 [label="heartRate <= 23.62\nentropy = 1.0\nsamples = 13\nvalue = [9, 9]\nclass = Smoker", fillcolor="#ffffff"] ;
474 -> 476 ;
477 [label="entropy = 0.0\nsamples = 3\nvalue = [0, 6]\nclass = Non Smoker", fillcolor="#399de5"] ;
476 -> 477 ;
478 [label="diaBP <= 155.0\nentropy = 0.81\nsamples = 10\nvalue = [9, 3]\nclass = Smoker", fillcolor="#eeab7b"] ;
476 -> 478 ;
479 [label="diaBP <= 133.75\nentropy = 0.47\nsamples = 9\nvalue = [9, 1]\nclass = Smoker", fillcolor="#e88f4f"] ;
478 -> 479 ;
480 [label="entropy = 0.0\nsamples = 1\nvalue = [0, 1]\nclass = Non Smoker", fillcolor="#399de5"] ;
479 -> 480 ;
481 [label="entropy = 0.0\nsamples = 8\nvalue = [9, 0]\nclass = Smoker", fillcolor="#e58139"] ;
479 -> 481 ;
482 [label="entropy = 0.0\nsamples = 1\nvalue = [0, 2]\nclass = Non Smoker", fillcolor="#399de5"] ;
478 -> 482 ;
483 [label="entropy = 0.0\nsamples = 1\nvalue = [0, 1]\nclass = Non Smoker", fillcolor="#399de5"] ;
471 -> 483 ;
484 [label="TenYearCHD <= 125.0\nentropy = 0.82\nsamples = 610\nvalue = [719, 245]\nclass = Smoker", fillcolor="#eeac7c"] ;
0 -> 484 [labeldistance=2.5, labelangle=-45, headlabel="False"] ;
485 [label="diaBP <= 160.25\nentropy = 0.8\nsamples = 589\nvalue = [709, 228]\nclass = Smoker", fillcolor="#edaa79"] ;
484 -> 485 ;
486 [label="TenYearCHD <= 86.5\nentropy = 0.67\nsamples = 401\nvalue = [523, 111]\nclass = Smoker", fillcolor="#eb9c63"] ;
485 -> 486 ;
487 [label="sysBP <= 130.5\nentropy = 0.57\nsamples = 290\nvalue = [384, 60]\nclass = Smoker", fillcolor="#e99558"] ;
486 -> 487 ;
488 [label="currentSmoker <= 1.5\nentropy = 0.92\nsamples = 4\nvalue = [2, 4]\nclass = Non Smoker", fillcolor="#9ccef2"] ;
487 -> 488 ;
489 [label="BPMeds <= 5.0\nentropy = 0.97\nsamples = 3\nvalue = [2, 3]\nclass = Non Smoker", fillcolor="#bddef6"] ;
488 -> 489 ;
490 [label="entropy = 0.0\nsamples = 2\nvalue = [0, 3]\nclass = Non Smoker", fillcolor="#399de5"] ;
489 -> 490 ;
491 [label="entropy = 0.0\nsamples = 1\nvalue = [2, 0]\nclass = Smoker", fillcolor="#e58139"] ;
489 -> 491 ;
492 [label="entropy = 0.0\nsamples = 1\nvalue = [0, 1]\nclass = Non Smoker", fillcolor="#399de5"] ;
488 -> 492 ;
493 [label="BMI <= 76.25\nentropy = 0.55\nsamples = 286\nvalue = [382, 56]\nclass = Smoker", fillcolor="#e99356"] ;
487 -> 493 ;
494 [label="prevalentStroke <= 0.5\nentropy = 0.99\nsamples = 9\nvalue = [6, 5]\nclass = Smoker", fillcolor="#fbeade"] ;
493 -> 494 ;
495 [label="glucose <= 72.5\nentropy = 0.97\nsamples = 8\nvalue = [6, 4]\nclass = Smoker", fillcolor="#f6d5bd"] ;
494 -> 495 ;
496 [label="entropy = 0.0\nsamples = 3\nvalue = [0, 4]\nclass = Non Smoker", fillcolor="#399de5"] ;
495 -> 496 ;
497 [label="entropy = 0.0\nsamples = 5\nvalue = [6, 0]\nclass = Smoker", fillcolor="#e58139"] ;
495 -> 497 ;
498 [label="entropy = 0.0\nsamples = 1\nvalue = [0, 1]\nclass = Non Smoker", fillcolor="#399de5"] ;
494 -> 498 ;
499 [label="glucose <= 106.5\nentropy = 0.53\nsamples = 277\nvalue = [376, 51]\nclass = Smoker", fillcolor="#e99254"] ;
493 -> 499 ;
500 [label="BMI <= 100.5\nentropy = 0.5\nsamples = 273\nvalue = [375, 46]\nclass = Smoker", fillcolor="#e89051"] ;
499 -> 500 ;
501 [label="TenYearCHD <= 81.5\nentropy = 0.52\nsamples = 249\nvalue = [336, 45]\nclass = Smoker", fillcolor="#e89254"] ;
500 -> 501 ;
502 [label="education <= 54.5\nentropy = 0.56\nsamples = 191\nvalue = [255, 39]\nclass = Smoker", fillcolor="#e99457"] ;
501 -> 502 ;
503 [label="currentSmoker <= 1.01\nentropy = 0.41\nsamples = 115\nvalue = [157, 14]\nclass = Smoker", fillcolor="#e78c4b"] ;
502 -> 503 ;
504 [label="sysBP <= 215.5\nentropy = 0.63\nsamples = 39\nvalue = [53, 10]\nclass = Smoker", fillcolor="#ea995e"] ;
503 -> 504 ;
505 [label="TenYearCHD <= 36.98\nentropy = 0.99\nsamples = 8\nvalue = [6, 5]\nclass = Smoker", fillcolor="#fbeade"] ;
504 -> 505 ;
506 [label="entropy = 0.0\nsamples = 3\nvalue = [5, 0]\nclass = Smoker", fillcolor="#e58139"] ;
505 -> 506 ;
507 [label="TenYearCHD <= 70.5\nentropy = 0.65\nsamples = 5\nvalue = [1, 5]\nclass = Non Smoker", fillcolor="#61b1ea"] ;
505 -> 507 ;
508 [label="entropy = 0.0\nsamples = 3\nvalue = [0, 4]\nclass = Non Smoker", fillcolor="#399de5"] ;
507 -> 508 ;
509 [label="glucose <= 92.5\nentropy = 1.0\nsamples = 2\nvalue = [1, 1]\nclass = Smoker", fillcolor="#ffffff"] ;
507 -> 509 ;
510 [label="entropy = 0.0\nsamples = 1\nvalue = [1, 0]\nclass = Smoker", fillcolor="#e58139"] ;
509 -> 510 ;
511 [label="entropy = 0.0\nsamples = 1\nvalue = [0, 1]\nclass = Non Smoker", fillcolor="#399de5"] ;
509 -> 511 ;
512 [label="education <= 49.0\nentropy = 0.46\nsamples = 31\nvalue = [47, 5]\nclass = Smoker", fillcolor="#e88e4e"] ;
504 -> 512 ;
513 [label="prevalentStroke <= 0.58\nentropy = 0.6\nsamples = 20\nvalue = [29, 5]\nclass = Smoker", fillcolor="#e9975b"] ;
512 -> 513 ;
514 [label="diaBP <= 147.25\nentropy = 0.45\nsamples = 19\nvalue = [29, 3]\nclass = Smoker", fillcolor="#e88e4d"] ;
513 -> 514 ;
515 [label="sysBP <= 286.5\nentropy = 0.25\nsamples = 14\nvalue = [23, 1]\nclass = Smoker", fillcolor="#e68642"] ;
514 -> 515 ;
516 [label="entropy = 0.0\nsamples = 10\nvalue = [17, 0]\nclass = Smoker", fillcolor="#e58139"] ;
515 -> 516 ;
517 [label="age <= 0.5\nentropy = 0.59\nsamples = 4\nvalue = [6, 1]\nclass = Smoker", fillcolor="#e9965a"] ;
515 -> 517 ;
518 [label="entropy = 0.0\nsamples = 1\nvalue = [1, 0]\nclass = Smoker", fillcolor="#e58139"] ;
517 -> 518 ;
519 [label="heartRate <= 27.47\nentropy = 0.65\nsamples = 3\nvalue = [5, 1]\nclass = Smoker", fillcolor="#ea9a61"] ;
517 -> 519 ;
520 [label="entropy = 0.0\nsamples = 2\nvalue = [5, 0]\nclass = Smoker", fillcolor="#e58139"] ;
519 -> 520 ;
521 [label="entropy = 0.0\nsamples = 1\nvalue = [0, 1]\nclass = Non Smoker", fillcolor="#399de5"] ;
519 -> 521 ;
522 [label="TenYearCHD <= 71.5\nentropy = 0.81\nsamples = 5\nvalue = [6, 2]\nclass = Smoker", fillcolor="#eeab7b"] ;
514 -> 522 ;
523 [label="entropy = 0.0\nsamples = 3\nvalue = [6, 0]\nclass = Smoker", fillcolor="#e58139"] ;
522 -> 523 ;
524 [label="entropy = 0.0\nsamples = 2\nvalue = [0, 2]\nclass = Non Smoker", fillcolor="#399de5"] ;
522 -> 524 ;
525 [label="entropy = 0.0\nsamples = 1\nvalue = [0, 2]\nclass = Non Smoker", fillcolor="#399de5"] ;
513 -> 525 ;
526 [label="entropy = 0.0\nsamples = 11\nvalue = [18, 0]\nclass = Smoker", fillcolor="#e58139"] ;
512 -> 526 ;
527 [label="BMI <= 99.5\nentropy = 0.23\nsamples = 76\nvalue = [104, 4]\nclass = Smoker", fillcolor="#e68641"] ;
503 -> 527 ;
528 [label="education <= 38.5\nentropy = 0.14\nsamples = 71\nvalue = [98, 2]\nclass = Smoker", fillcolor="#e6843d"] ;
527 -> 528 ;
529 [label="currentSmoker <= 2.5\nentropy = 0.65\nsamples = 6\nvalue = [5, 1]\nclass = Smoker", fillcolor="#ea9a61"] ;
528 -> 529 ;
530 [label="TenYearCHD <= 62.0\nentropy = 0.81\nsamples = 4\nvalue = [3, 1]\nclass = Smoker", fillcolor="#eeab7b"] ;
529 -> 530 ;
531 [label="entropy = 0.0\nsamples = 2\nvalue = [2, 0]\nclass = Smoker", fillcolor="#e58139"] ;
530 -> 531 ;
532 [label="diaBP <= 133.75\nentropy = 1.0\nsamples = 2\nvalue = [1, 1]\nclass = Smoker", fillcolor="#ffffff"] ;
530 -> 532 ;
533 [label="entropy = 0.0\nsamples = 1\nvalue = [0, 1]\nclass = Non Smoker", fillcolor="#399de5"] ;
532 -> 533 ;
534 [label="entropy = 0.0\nsamples = 1\nvalue = [1, 0]\nclass = Smoker", fillcolor="#e58139"] ;
532 -> 534 ;
535 [label="entropy = 0.0\nsamples = 2\nvalue = [2, 0]\nclass = Smoker", fillcolor="#e58139"] ;
529 -> 535 ;
536 [label="heartRate <= 29.2\nentropy = 0.08\nsamples = 65\nvalue = [93, 1]\nclass = Smoker", fillcolor="#e5823b"] ;
528 -> 536 ;
537 [label="entropy = 0.0\nsamples = 38\nvalue = [57, 0]\nclass = Smoker", fillcolor="#e58139"] ;
536 -> 537 ;
538 [label="heartRate <= 29.32\nentropy = 0.18\nsamples = 27\nvalue = [36, 1]\nclass = Smoker", fillcolor="#e6843e"] ;
536 -> 538 ;
539 [label="BPMeds <= 4.5\nentropy = 1.0\nsamples = 2\nvalue = [1, 1]\nclass = Smoker", fillcolor="#ffffff"] ;
538 -> 539 ;
540 [label="entropy = 0.0\nsamples = 1\nvalue = [0, 1]\nclass = Non Smoker", fillcolor="#399de5"] ;
539 -> 540 ;
541 [label="entropy = 0.0\nsamples = 1\nvalue = [1, 0]\nclass = Smoker", fillcolor="#e58139"] ;
539 -> 541 ;
542 [label="entropy = 0.0\nsamples = 25\nvalue = [35, 0]\nclass = Smoker", fillcolor="#e58139"] ;
538 -> 542 ;
543 [label="heartRate <= 28.25\nentropy = 0.81\nsamples = 5\nvalue = [6, 2]\nclass = Smoker", fillcolor="#eeab7b"] ;
527 -> 543 ;
544 [label="entropy = 0.0\nsamples = 4\nvalue = [6, 0]\nclass = Smoker", fillcolor="#e58139"] ;
543 -> 544 ;
545 [label="entropy = 0.0\nsamples = 1\nvalue = [0, 2]\nclass = Non Smoker", fillcolor="#399de5"] ;
543 -> 545 ;
546 [label="diaBP <= 156.75\nentropy = 0.73\nsamples = 76\nvalue = [98, 25]\nclass = Smoker", fillcolor="#eca16c"] ;
502 -> 546 ;
547 [label="BMI <= 80.75\nentropy = 0.78\nsamples = 66\nvalue = [82, 25]\nclass = Smoker", fillcolor="#eda775"] ;
546 -> 547 ;
548 [label="TenYearCHD <= 69.0\nentropy = 0.97\nsamples = 5\nvalue = [4, 6]\nclass = Non Smoker", fillcolor="#bddef6"] ;
547 -> 548 ;
549 [label="entropy = 0.0\nsamples = 1\nvalue = [0, 3]\nclass = Non Smoker", fillcolor="#399de5"] ;
548 -> 549 ;
550 [label="currentSmoker <= 2.5\nentropy = 0.99\nsamples = 4\nvalue = [4, 3]\nclass = Smoker", fillcolor="#f8e0ce"] ;
548 -> 550 ;
551 [label="diaBP <= 148.5\nentropy = 0.81\nsamples = 3\nvalue = [1, 3]\nclass = Non Smoker", fillcolor="#7bbeee"] ;
550 -> 551 ;
552 [label="entropy = 0.0\nsamples = 2\nvalue = [0, 3]\nclass = Non Smoker", fillcolor="#399de5"] ;
551 -> 552 ;
553 [label="entropy = 0.0\nsamples = 1\nvalue = [1, 0]\nclass = Smoker", fillcolor="#e58139"] ;
551 -> 553 ;
554 [label="entropy = 0.0\nsamples = 1\nvalue = [3, 0]\nclass = Smoker", fillcolor="#e58139"] ;
550 -> 554 ;
555 [label="BMI <= 85.25\nentropy = 0.71\nsamples = 61\nvalue = [78, 19]\nclass = Smoker", fillcolor="#eba069"] ;
547 -> 555 ;
556 [label="diaBP <= 145.0\nentropy = 0.35\nsamples = 20\nvalue = [28, 2]\nclass = Smoker", fillcolor="#e78a47"] ;
555 -> 556 ;
557 [label="entropy = 0.0\nsamples = 14\nvalue = [23, 0]\nclass = Smoker", fillcolor="#e58139"] ;
556 -> 557 ;
558 [label="sysBP <= 287.0\nentropy = 0.86\nsamples = 6\nvalue = [5, 2]\nclass = Smoker", fillcolor="#efb388"] ;
556 -> 558 ;
559 [label="entropy = 0.0\nsamples = 4\nvalue = [5, 0]\nclass = Smoker", fillcolor="#e58139"] ;
558 -> 559 ;
560 [label="entropy = 0.0\nsamples = 2\nvalue = [0, 2]\nclass = Non Smoker", fillcolor="#399de5"] ;
558 -> 560 ;
561 [label="cigsPerDay <= 0.5\nentropy = 0.82\nsamples = 41\nvalue = [50, 17]\nclass = Smoker", fillcolor="#eeac7c"] ;
555 -> 561 ;
562 [label="glucose <= 93.0\nentropy = 0.74\nsamples = 27\nvalue = [34, 9]\nclass = Smoker", fillcolor="#eca26d"] ;
561 -> 562 ;
563 [label="education <= 56.5\nentropy = 0.66\nsamples = 26\nvalue = [34, 7]\nclass = Smoker", fillcolor="#ea9b62"] ;
562 -> 563 ;
564 [label="TenYearCHD <= 73.0\nentropy = 0.99\nsamples = 5\nvalue = [3, 4]\nclass = Non Smoker", fillcolor="#cee6f8"] ;
563 -> 564 ;
565 [label="heartRate <= 27.03\nentropy = 0.72\nsamples = 3\nvalue = [1, 4]\nclass = Non Smoker", fillcolor="#6ab6ec"] ;
564 -> 565 ;
566 [label="entropy = 0.0\nsamples = 2\nvalue = [0, 4]\nclass = Non Smoker", fillcolor="#399de5"] ;
565 -> 566 ;
567 [label="entropy = 0.0\nsamples = 1\nvalue = [1, 0]\nclass = Smoker", fillcolor="#e58139"] ;
565 -> 567 ;
568 [label="entropy = 0.0\nsamples = 2\nvalue = [2, 0]\nclass = Smoker", fillcolor="#e58139"] ;
564 -> 568 ;
569 [label="heartRate <= 27.1\nentropy = 0.43\nsamples = 21\nvalue = [31, 3]\nclass = Smoker", fillcolor="#e88d4c"] ;
563 -> 569 ;
570 [label="entropy = 0.0\nsamples = 12\nvalue = [22, 0]\nclass = Smoker", fillcolor="#e58139"] ;
569 -> 570 ;
571 [label="currentSmoker <= 2.5\nentropy = 0.81\nsamples = 9\nvalue = [9, 3]\nclass = Smoker", fillcolor="#eeab7b"] ;
569 -> 571 ;
572 [label="diaBP <= 136.0\nentropy = 0.92\nsamples = 6\nvalue = [6, 3]\nclass = Smoker", fillcolor="#f2c09c"] ;
571 -> 572 ;
573 [label="entropy = 0.0\nsamples = 1\nvalue = [3, 0]\nclass = Smoker", fillcolor="#e58139"] ;
572 -> 573 ;
574 [label="glucose <= 60.0\nentropy = 1.0\nsamples = 5\nvalue = [3, 3]\nclass = Smoker", fillcolor="#ffffff"] ;
572 -> 574 ;
575 [label="entropy = 0.0\nsamples = 1\nvalue = [2, 0]\nclass = Smoker", fillcolor="#e58139"] ;
574 -> 575 ;
576 [label="heartRate <= 33.91\nentropy = 0.81\nsamples = 4\nvalue = [1, 3]\nclass = Non Smoker", fillcolor="#7bbeee"] ;
574 -> 576 ;
577 [label="entropy = 0.0\nsamples = 3\nvalue = [0, 3]\nclass = Non Smoker", fillcolor="#399de5"] ;
576 -> 577 ;
578 [label="entropy = 0.0\nsamples = 1\nvalue = [1, 0]\nclass = Smoker", fillcolor="#e58139"] ;
576 -> 578 ;
579 [label="entropy = 0.0\nsamples = 3\nvalue = [3, 0]\nclass = Smoker", fillcolor="#e58139"] ;
571 -> 579 ;
580 [label="entropy = 0.0\nsamples = 1\nvalue = [0, 2]\nclass = Non Smoker", fillcolor="#399de5"] ;
562 -> 580 ;
581 [label="currentSmoker <= 1.01\nentropy = 0.92\nsamples = 14\nvalue = [16, 8]\nclass = Smoker", fillcolor="#f2c09c"] ;
561 -> 581 ;
582 [label="sysBP <= 254.0\nentropy = 0.79\nsamples = 12\nvalue = [16, 5]\nclass = Smoker", fillcolor="#eda877"] ;
581 -> 582 ;
583 [label="BMI <= 97.75\nentropy = 0.37\nsamples = 7\nvalue = [13, 1]\nclass = Smoker", fillcolor="#e78b48"] ;
582 -> 583 ;
584 [label="entropy = 0.0\nsamples = 6\nvalue = [13, 0]\nclass = Smoker", fillcolor="#e58139"] ;
583 -> 584 ;
585 [label="entropy = 0.0\nsamples = 1\nvalue = [0, 1]\nclass = Non Smoker", fillcolor="#399de5"] ;
583 -> 585 ;
586 [label="TenYearCHD <= 78.5\nentropy = 0.99\nsamples = 5\nvalue = [3, 4]\nclass = Non Smoker", fillcolor="#cee6f8"] ;
582 -> 586 ;
587 [label="sysBP <= 258.5\nentropy = 0.97\nsamples = 4\nvalue = [3, 2]\nclass = Smoker", fillcolor="#f6d5bd"] ;
586 -> 587 ;
588 [label="entropy = 0.0\nsamples = 1\nvalue = [0, 1]\nclass = Non Smoker", fillcolor="#399de5"] ;
587 -> 588 ;
589 [label="BMI <= 89.75\nentropy = 0.81\nsamples = 3\nvalue = [3, 1]\nclass = Smoker", fillcolor="#eeab7b"] ;
587 -> 589 ;
590 [label="entropy = 0.0\nsamples = 1\nvalue = [0, 1]\nclass = Non Smoker", fillcolor="#399de5"] ;
589 -> 590 ;
591 [label="entropy = 0.0\nsamples = 2\nvalue = [3, 0]\nclass = Smoker", fillcolor="#e58139"] ;
589 -> 591 ;
592 [label="entropy = 0.0\nsamples = 1\nvalue = [0, 2]\nclass = Non Smoker", fillcolor="#399de5"] ;
586 -> 592 ;
593 [label="entropy = 0.0\nsamples = 2\nvalue = [0, 3]\nclass = Non Smoker", fillcolor="#399de5"] ;
581 -> 593 ;
594 [label="entropy = 0.0\nsamples = 10\nvalue = [16, 0]\nclass = Smoker", fillcolor="#e58139"] ;
546 -> 594 ;
595 [label="BMI <= 96.75\nentropy = 0.36\nsamples = 58\nvalue = [81, 6]\nclass = Smoker", fillcolor="#e78a48"] ;
501 -> 595 ;
596 [label="glucose <= 79.0\nentropy = 0.25\nsamples = 49\nvalue = [70, 3]\nclass = Smoker", fillcolor="#e68641"] ;
595 -> 596 ;
597 [label="entropy = 0.0\nsamples = 26\nvalue = [40, 0]\nclass = Smoker", fillcolor="#e58139"] ;
596 -> 597 ;
598 [label="currentSmoker <= 2.5\nentropy = 0.44\nsamples = 23\nvalue = [30, 3]\nclass = Smoker", fillcolor="#e88e4d"] ;
596 -> 598 ;
599 [label="heartRate <= 25.14\nentropy = 0.54\nsamples = 15\nvalue = [21, 3]\nclass = Smoker", fillcolor="#e99355"] ;
598 -> 599 ;
600 [label="entropy = 0.0\nsamples = 3\nvalue = [7, 0]\nclass = Smoker", fillcolor="#e58139"] ;
599 -> 600 ;
601 [label="education <= 64.0\nentropy = 0.67\nsamples = 12\nvalue = [14, 3]\nclass = Smoker", fillcolor="#eb9c63"] ;
599 -> 601 ;
602 [label="heartRate <= 25.41\nentropy = 0.54\nsamples = 11\nvalue = [14, 2]\nclass = Smoker", fillcolor="#e99355"] ;
601 -> 602 ;
603 [label="entropy = 0.0\nsamples = 1\nvalue = [0, 1]\nclass = Non Smoker", fillcolor="#399de5"] ;
602 -> 603 ;
604 [label="heartRate <= 30.79\nentropy = 0.35\nsamples = 10\nvalue = [14, 1]\nclass = Smoker", fillcolor="#e78a47"] ;
602 -> 604 ;
605 [label="entropy = 0.0\nsamples = 7\nvalue = [11, 0]\nclass = Smoker", fillcolor="#e58139"] ;
604 -> 605 ;
606 [label="BMI <= 87.0\nentropy = 0.81\nsamples = 3\nvalue = [3, 1]\nclass = Smoker", fillcolor="#eeab7b"] ;
604 -> 606 ;
607 [label="entropy = 0.0\nsamples = 1\nvalue = [0, 1]\nclass = Non Smoker", fillcolor="#399de5"] ;
606 -> 607 ;
608 [label="entropy = 0.0\nsamples = 2\nvalue = [3, 0]\nclass = Smoker", fillcolor="#e58139"] ;
606 -> 608 ;
609 [label="entropy = 0.0\nsamples = 1\nvalue = [0, 1]\nclass = Non Smoker", fillcolor="#399de5"] ;
601 -> 609 ;
610 [label="entropy = 0.0\nsamples = 8\nvalue = [9, 0]\nclass = Smoker", fillcolor="#e58139"] ;
598 -> 610 ;
611 [label="heartRate <= 25.02\nentropy = 0.75\nsamples = 9\nvalue = [11, 3]\nclass = Smoker", fillcolor="#eca36f"] ;
595 -> 611 ;
612 [label="TenYearCHD <= 85.5\nentropy = 0.97\nsamples = 3\nvalue = [2, 3]\nclass = Non Smoker", fillcolor="#bddef6"] ;
611 -> 612 ;
613 [label="entropy = 0.0\nsamples = 2\nvalue = [2, 0]\nclass = Smoker", fillcolor="#e58139"] ;
612 -> 613 ;
614 [label="entropy = 0.0\nsamples = 1\nvalue = [0, 3]\nclass = Non Smoker", fillcolor="#399de5"] ;
612 -> 614 ;
615 [label="entropy = 0.0\nsamples = 6\nvalue = [9, 0]\nclass = Smoker", fillcolor="#e58139"] ;
611 -> 615 ;
616 [label="BMI <= 109.25\nentropy = 0.17\nsamples = 24\nvalue = [39, 1]\nclass = Smoker", fillcolor="#e6843e"] ;
500 -> 616 ;
617 [label="entropy = 0.0\nsamples = 22\nvalue = [38, 0]\nclass = Smoker", fillcolor="#e58139"] ;
616 -> 617 ;
618 [label="currentSmoker <= 2.5\nentropy = 1.0\nsamples = 2\nvalue = [1, 1]\nclass = Smoker", fillcolor="#ffffff"] ;
616 -> 618 ;
619 [label="entropy = 0.0\nsamples = 1\nvalue = [0, 1]\nclass = Non Smoker", fillcolor="#399de5"] ;
618 -> 619 ;
620 [label="entropy = 0.0\nsamples = 1\nvalue = [1, 0]\nclass = Smoker", fillcolor="#e58139"] ;
618 -> 620 ;
621 [label="currentSmoker <= 2.5\nentropy = 0.65\nsamples = 4\nvalue = [1, 5]\nclass = Non Smoker", fillcolor="#61b1ea"] ;
499 -> 621 ;
622 [label="entropy = 0.0\nsamples = 1\nvalue = [1, 0]\nclass = Smoker", fillcolor="#e58139"] ;
621 -> 622 ;
623 [label="entropy = 0.0\nsamples = 3\nvalue = [0, 5]\nclass = Non Smoker", fillcolor="#399de5"] ;
621 -> 623 ;
624 [label="BMI <= 106.0\nentropy = 0.84\nsamples = 111\nvalue = [139, 51]\nclass = Smoker", fillcolor="#efaf82"] ;
486 -> 624 ;
625 [label="BMI <= 73.5\nentropy = 0.82\nsamples = 110\nvalue = [139, 48]\nclass = Smoker", fillcolor="#eead7d"] ;
624 -> 625 ;
626 [label="currentSmoker <= 1.5\nentropy = 0.96\nsamples = 6\nvalue = [5, 8]\nclass = Non Smoker", fillcolor="#b5daf5"] ;
625 -> 626 ;
627 [label="entropy = 0.0\nsamples = 3\nvalue = [0, 8]\nclass = Non Smoker", fillcolor="#399de5"] ;
626 -> 627 ;
628 [label="entropy = 0.0\nsamples = 3\nvalue = [5, 0]\nclass = Smoker", fillcolor="#e58139"] ;
626 -> 628 ;
629 [label="education <= 58.5\nentropy = 0.78\nsamples = 104\nvalue = [134, 40]\nclass = Smoker", fillcolor="#eda774"] ;
625 -> 629 ;
630 [label="sysBP <= 256.5\nentropy = 0.58\nsamples = 73\nvalue = [105, 17]\nclass = Smoker", fillcolor="#e99559"] ;
629 -> 630 ;
631 [label="education <= 49.5\nentropy = 0.25\nsamples = 42\nvalue = [70, 3]\nclass = Smoker", fillcolor="#e68641"] ;
630 -> 631 ;
632 [label="entropy = 0.0\nsamples = 22\nvalue = [40, 0]\nclass = Smoker", fillcolor="#e58139"] ;
631 -> 632 ;
633 [label="glucose <= 69.0\nentropy = 0.44\nsamples = 20\nvalue = [30, 3]\nclass = Smoker", fillcolor="#e88e4d"] ;
631 -> 633 ;
634 [label="BMI <= 100.0\nentropy = 1.0\nsamples = 4\nvalue = [3, 3]\nclass = Smoker", fillcolor="#ffffff"] ;
633 -> 634 ;
635 [label="education <= 55.5\nentropy = 0.81\nsamples = 3\nvalue = [1, 3]\nclass = Non Smoker", fillcolor="#7bbeee"] ;
634 -> 635 ;
636 [label="entropy = 0.0\nsamples = 2\nvalue = [0, 3]\nclass = Non Smoker", fillcolor="#399de5"] ;
635 -> 636 ;
637 [label="entropy = 0.0\nsamples = 1\nvalue = [1, 0]\nclass = Smoker", fillcolor="#e58139"] ;
635 -> 637 ;
638 [label="entropy = 0.0\nsamples = 1\nvalue = [2, 0]\nclass = Smoker", fillcolor="#e58139"] ;
634 -> 638 ;
639 [label="entropy = 0.0\nsamples = 16\nvalue = [27, 0]\nclass = Smoker", fillcolor="#e58139"] ;
633 -> 639 ;
640 [label="diaBP <= 150.5\nentropy = 0.86\nsamples = 31\nvalue = [35, 14]\nclass = Smoker", fillcolor="#efb388"] ;
630 -> 640 ;
641 [label="glucose <= 74.5\nentropy = 0.75\nsamples = 26\nvalue = [33, 9]\nclass = Smoker", fillcolor="#eca36f"] ;
640 -> 641 ;
642 [label="entropy = 0.0\nsamples = 4\nvalue = [9, 0]\nclass = Smoker", fillcolor="#e58139"] ;
641 -> 642 ;
643 [label="sysBP <= 259.0\nentropy = 0.85\nsamples = 22\nvalue = [24, 9]\nclass = Smoker", fillcolor="#efb083"] ;
641 -> 643 ;
644 [label="entropy = 0.0\nsamples = 1\nvalue = [0, 2]\nclass = Non Smoker", fillcolor="#399de5"] ;
643 -> 644 ;
645 [label="TenYearCHD <= 88.5\nentropy = 0.77\nsamples = 21\nvalue = [24, 7]\nclass = Smoker", fillcolor="#eda673"] ;
643 -> 645 ;
646 [label="glucose <= 83.0\nentropy = 0.86\nsamples = 5\nvalue = [2, 5]\nclass = Non Smoker", fillcolor="#88c4ef"] ;
645 -> 646 ;
647 [label="entropy = 0.0\nsamples = 2\nvalue = [0, 3]\nclass = Non Smoker", fillcolor="#399de5"] ;
646 -> 647 ;
648 [label="education <= 49.0\nentropy = 1.0\nsamples = 3\nvalue = [2, 2]\nclass = Smoker", fillcolor="#ffffff"] ;
646 -> 648 ;
649 [label="entropy = 0.0\nsamples = 2\nvalue = [2, 0]\nclass = Smoker", fillcolor="#e58139"] ;
648 -> 649 ;
650 [label="entropy = 0.0\nsamples = 1\nvalue = [0, 2]\nclass = Non Smoker", fillcolor="#399de5"] ;
648 -> 650 ;
651 [label="education <= 46.5\nentropy = 0.41\nsamples = 16\nvalue = [22, 2]\nclass = Smoker", fillcolor="#e78c4b"] ;
645 -> 651 ;
652 [label="entropy = 0.0\nsamples = 5\nvalue = [8, 0]\nclass = Smoker", fillcolor="#e58139"] ;
651 -> 652 ;
653 [label="age <= 0.5\nentropy = 0.54\nsamples = 11\nvalue = [14, 2]\nclass = Smoker", fillcolor="#e99355"] ;
651 -> 653 ;
654 [label="entropy = 0.0\nsamples = 7\nvalue = [11, 0]\nclass = Smoker", fillcolor="#e58139"] ;
653 -> 654 ;
655 [label="currentSmoker <= 2.5\nentropy = 0.97\nsamples = 4\nvalue = [3, 2]\nclass = Smoker", fillcolor="#f6d5bd"] ;
653 -> 655 ;
656 [label="entropy = 0.0\nsamples = 2\nvalue = [0, 2]\nclass = Non Smoker", fillcolor="#399de5"] ;
655 -> 656 ;
657 [label="entropy = 0.0\nsamples = 2\nvalue = [3, 0]\nclass = Smoker", fillcolor="#e58139"] ;
655 -> 657 ;
658 [label="sysBP <= 280.0\nentropy = 0.86\nsamples = 5\nvalue = [2, 5]\nclass = Non Smoker", fillcolor="#88c4ef"] ;
640 -> 658 ;
659 [label="entropy = 0.0\nsamples = 3\nvalue = [0, 5]\nclass = Non Smoker", fillcolor="#399de5"] ;
658 -> 659 ;
660 [label="entropy = 0.0\nsamples = 2\nvalue = [2, 0]\nclass = Smoker", fillcolor="#e58139"] ;
658 -> 660 ;
661 [label="BMI <= 83.0\nentropy = 0.99\nsamples = 31\nvalue = [29, 23]\nclass = Smoker", fillcolor="#fae5d6"] ;
629 -> 661 ;
662 [label="entropy = 0.0\nsamples = 9\nvalue = [15, 0]\nclass = Smoker", fillcolor="#e58139"] ;
661 -> 662 ;
663 [label="prevalentStroke <= 0.5\nentropy = 0.96\nsamples = 22\nvalue = [14, 23]\nclass = Non Smoker", fillcolor="#b2d9f5"] ;
661 -> 663 ;
664 [label="diaBP <= 155.25\nentropy = 0.88\nsamples = 20\nvalue = [10, 23]\nclass = Non Smoker", fillcolor="#8fc8f0"] ;
663 -> 664 ;
665 [label="glucose <= 72.5\nentropy = 0.99\nsamples = 17\nvalue = [10, 13]\nclass = Non Smoker", fillcolor="#d1e8f9"] ;
664 -> 665 ;
666 [label="diaBP <= 149.25\nentropy = 0.68\nsamples = 6\nvalue = [2, 9]\nclass = Non Smoker", fillcolor="#65b3eb"] ;
665 -> 666 ;
667 [label="entropy = 0.0\nsamples = 4\nvalue = [0, 9]\nclass = Non Smoker", fillcolor="#399de5"] ;
666 -> 667 ;
668 [label="entropy = 0.0\nsamples = 2\nvalue = [2, 0]\nclass = Smoker", fillcolor="#e58139"] ;
666 -> 668 ;
669 [label="glucose <= 87.5\nentropy = 0.92\nsamples = 11\nvalue = [8, 4]\nclass = Smoker", fillcolor="#f2c09c"] ;
665 -> 669 ;
670 [label="BMI <= 87.75\nentropy = 0.72\nsamples = 9\nvalue = [8, 2]\nclass = Smoker", fillcolor="#eca06a"] ;
669 -> 670 ;
671 [label="heartRate <= 25.37\nentropy = 1.0\nsamples = 2\nvalue = [1, 1]\nclass = Smoker", fillcolor="#ffffff"] ;
670 -> 671 ;
672 [label="entropy = 0.0\nsamples = 1\nvalue = [0, 1]\nclass = Non Smoker", fillcolor="#399de5"] ;
671 -> 672 ;
673 [label="entropy = 0.0\nsamples = 1\nvalue = [1, 0]\nclass = Smoker", fillcolor="#e58139"] ;
671 -> 673 ;
674 [label="education <= 61.0\nentropy = 0.54\nsamples = 7\nvalue = [7, 1]\nclass = Smoker", fillcolor="#e99355"] ;
670 -> 674 ;
675 [label="sysBP <= 332.0\nentropy = 0.81\nsamples = 4\nvalue = [3, 1]\nclass = Smoker", fillcolor="#eeab7b"] ;
674 -> 675 ;
676 [label="entropy = 0.0\nsamples = 3\nvalue = [3, 0]\nclass = Smoker", fillcolor="#e58139"] ;
675 -> 676 ;
677 [label="entropy = 0.0\nsamples = 1\nvalue = [0, 1]\nclass = Non Smoker", fillcolor="#399de5"] ;
675 -> 677 ;
678 [label="entropy = 0.0\nsamples = 3\nvalue = [4, 0]\nclass = Smoker", fillcolor="#e58139"] ;
674 -> 678 ;
679 [label="entropy = 0.0\nsamples = 2\nvalue = [0, 2]\nclass = Non Smoker", fillcolor="#399de5"] ;
669 -> 679 ;
680 [label="entropy = 0.0\nsamples = 3\nvalue = [0, 10]\nclass = Non Smoker", fillcolor="#399de5"] ;
664 -> 680 ;
681 [label="entropy = 0.0\nsamples = 2\nvalue = [4, 0]\nclass = Smoker", fillcolor="#e58139"] ;
663 -> 681 ;
682 [label="entropy = 0.0\nsamples = 1\nvalue = [0, 3]\nclass = Non Smoker", fillcolor="#399de5"] ;
624 -> 682 ;
683 [label="TenYearCHD <= 68.5\nentropy = 0.96\nsamples = 188\nvalue = [186, 117]\nclass = Smoker", fillcolor="#f5d0b6"] ;
485 -> 683 ;
684 [label="BMI <= 119.0\nentropy = 0.75\nsamples = 41\nvalue = [48, 13]\nclass = Smoker", fillcolor="#eca36f"] ;
683 -> 684 ;
685 [label="glucose <= 88.0\nentropy = 0.64\nsamples = 36\nvalue = [46, 9]\nclass = Smoker", fillcolor="#ea9a60"] ;
684 -> 685 ;
686 [label="sysBP <= 198.5\nentropy = 0.79\nsamples = 26\nvalue = [29, 9]\nclass = Smoker", fillcolor="#eda876"] ;
685 -> 686 ;
687 [label="glucose <= 66.0\nentropy = 0.99\nsamples = 6\nvalue = [3, 4]\nclass = Non Smoker", fillcolor="#cee6f8"] ;
686 -> 687 ;
688 [label="entropy = 0.0\nsamples = 1\nvalue = [1, 0]\nclass = Smoker", fillcolor="#e58139"] ;
687 -> 688 ;
689 [label="diaBP <= 170.25\nentropy = 0.92\nsamples = 5\nvalue = [2, 4]\nclass = Non Smoker", fillcolor="#9ccef2"] ;
687 -> 689 ;
690 [label="entropy = 0.0\nsamples = 2\nvalue = [0, 3]\nclass = Non Smoker", fillcolor="#399de5"] ;
689 -> 690 ;
691 [label="glucose <= 77.0\nentropy = 0.92\nsamples = 3\nvalue = [2, 1]\nclass = Smoker", fillcolor="#f2c09c"] ;
689 -> 691 ;
692 [label="entropy = 0.0\nsamples = 1\nvalue = [1, 0]\nclass = Smoker", fillcolor="#e58139"] ;
691 -> 692 ;
693 [label="glucose <= 82.5\nentropy = 1.0\nsamples = 2\nvalue = [1, 1]\nclass = Smoker", fillcolor="#ffffff"] ;
691 -> 693 ;
694 [label="entropy = 0.0\nsamples = 1\nvalue = [0, 1]\nclass = Non Smoker", fillcolor="#399de5"] ;
693 -> 694 ;
695 [label="entropy = 0.0\nsamples = 1\nvalue = [1, 0]\nclass = Smoker", fillcolor="#e58139"] ;
693 -> 695 ;
696 [label="sysBP <= 254.5\nentropy = 0.64\nsamples = 20\nvalue = [26, 5]\nclass = Smoker", fillcolor="#ea995f"] ;
686 -> 696 ;
697 [label="entropy = 0.0\nsamples = 10\nvalue = [12, 0]\nclass = Smoker", fillcolor="#e58139"] ;
696 -> 697 ;
698 [label="TenYearCHD <= 43.48\nentropy = 0.83\nsamples = 10\nvalue = [14, 5]\nclass = Smoker", fillcolor="#eeae80"] ;
696 -> 698 ;
699 [label="diaBP <= 192.5\nentropy = 0.44\nsamples = 6\nvalue = [10, 1]\nclass = Smoker", fillcolor="#e88e4d"] ;
698 -> 699 ;
700 [label="entropy = 0.0\nsamples = 4\nvalue = [9, 0]\nclass = Smoker", fillcolor="#e58139"] ;
699 -> 700 ;
701 [label="glucose <= 80.5\nentropy = 1.0\nsamples = 2\nvalue = [1, 1]\nclass = Smoker", fillcolor="#ffffff"] ;
699 -> 701 ;
702 [label="entropy = 0.0\nsamples = 1\nvalue = [1, 0]\nclass = Smoker", fillcolor="#e58139"] ;
701 -> 702 ;
703 [label="entropy = 0.0\nsamples = 1\nvalue = [0, 1]\nclass = Non Smoker", fillcolor="#399de5"] ;
701 -> 703 ;
704 [label="BMI <= 93.0\nentropy = 1.0\nsamples = 4\nvalue = [4, 4]\nclass = Smoker", fillcolor="#ffffff"] ;
698 -> 704 ;
705 [label="entropy = 0.0\nsamples = 1\nvalue = [3, 0]\nclass = Smoker", fillcolor="#e58139"] ;
704 -> 705 ;
706 [label="age <= 0.5\nentropy = 0.72\nsamples = 3\nvalue = [1, 4]\nclass = Non Smoker", fillcolor="#6ab6ec"] ;
704 -> 706 ;
707 [label="entropy = 0.0\nsamples = 2\nvalue = [0, 4]\nclass = Non Smoker", fillcolor="#399de5"] ;
706 -> 707 ;
708 [label="entropy = 0.0\nsamples = 1\nvalue = [1, 0]\nclass = Smoker", fillcolor="#e58139"] ;
706 -> 708 ;
709 [label="entropy = 0.0\nsamples = 10\nvalue = [17, 0]\nclass = Smoker", fillcolor="#e58139"] ;
685 -> 709 ;
710 [label="TenYearCHD <= 41.98\nentropy = 0.92\nsamples = 5\nvalue = [2, 4]\nclass = Non Smoker", fillcolor="#9ccef2"] ;
684 -> 710 ;
711 [label="education <= 53.5\nentropy = 0.92\nsamples = 3\nvalue = [2, 1]\nclass = Smoker", fillcolor="#f2c09c"] ;
710 -> 711 ;
712 [label="entropy = 0.0\nsamples = 2\nvalue = [2, 0]\nclass = Smoker", fillcolor="#e58139"] ;
711 -> 712 ;
713 [label="entropy = 0.0\nsamples = 1\nvalue = [0, 1]\nclass = Non Smoker", fillcolor="#399de5"] ;
711 -> 713 ;
714 [label="entropy = 0.0\nsamples = 2\nvalue = [0, 3]\nclass = Non Smoker", fillcolor="#399de5"] ;
710 -> 714 ;
715 [label="education <= 47.5\nentropy = 0.99\nsamples = 147\nvalue = [138, 104]\nclass = Smoker", fillcolor="#f9e0ce"] ;
683 -> 715 ;
716 [label="glucose <= 74.0\nentropy = 0.62\nsamples = 18\nvalue = [22, 4]\nclass = Smoker", fillcolor="#ea985d"] ;
715 -> 716 ;
717 [label="BMI <= 108.5\nentropy = 0.81\nsamples = 4\nvalue = [1, 3]\nclass = Non Smoker", fillcolor="#7bbeee"] ;
716 -> 717 ;
718 [label="entropy = 0.0\nsamples = 2\nvalue = [0, 2]\nclass = Non Smoker", fillcolor="#399de5"] ;
717 -> 718 ;
719 [label="BPMeds <= 23.0\nentropy = 1.0\nsamples = 2\nvalue = [1, 1]\nclass = Smoker", fillcolor="#ffffff"] ;
717 -> 719 ;
720 [label="entropy = 0.0\nsamples = 1\nvalue = [0, 1]\nclass = Non Smoker", fillcolor="#399de5"] ;
719 -> 720 ;
721 [label="entropy = 0.0\nsamples = 1\nvalue = [1, 0]\nclass = Smoker", fillcolor="#e58139"] ;
719 -> 721 ;
722 [label="BMI <= 100.5\nentropy = 0.27\nsamples = 14\nvalue = [21, 1]\nclass = Smoker", fillcolor="#e68742"] ;
716 -> 722 ;
723 [label="sysBP <= 252.5\nentropy = 0.44\nsamples = 6\nvalue = [10, 1]\nclass = Smoker", fillcolor="#e88e4d"] ;
722 -> 723 ;
724 [label="entropy = 0.0\nsamples = 3\nvalue = [7, 0]\nclass = Smoker", fillcolor="#e58139"] ;
723 -> 724 ;
725 [label="education <= 45.5\nentropy = 0.81\nsamples = 3\nvalue = [3, 1]\nclass = Smoker", fillcolor="#eeab7b"] ;
723 -> 725 ;
726 [label="BMI <= 93.5\nentropy = 1.0\nsamples = 2\nvalue = [1, 1]\nclass = Smoker", fillcolor="#ffffff"] ;
725 -> 726 ;
727 [label="entropy = 0.0\nsamples = 1\nvalue = [1, 0]\nclass = Smoker", fillcolor="#e58139"] ;
726 -> 727 ;
728 [label="entropy = 0.0\nsamples = 1\nvalue = [0, 1]\nclass = Non Smoker", fillcolor="#399de5"] ;
726 -> 728 ;
729 [label="entropy = 0.0\nsamples = 1\nvalue = [2, 0]\nclass = Smoker", fillcolor="#e58139"] ;
725 -> 729 ;
730 [label="entropy = 0.0\nsamples = 8\nvalue = [11, 0]\nclass = Smoker", fillcolor="#e58139"] ;
722 -> 730 ;
731 [label="heartRate <= 23.3\nentropy = 1.0\nsamples = 129\nvalue = [116, 100]\nclass = Smoker", fillcolor="#fbeee4"] ;
715 -> 731 ;
732 [label="diaBP <= 175.5\nentropy = 0.81\nsamples = 21\nvalue = [10, 30]\nclass = Non Smoker", fillcolor="#7bbeee"] ;
731 -> 732 ;
733 [label="age <= 0.5\nentropy = 0.4\nsamples = 12\nvalue = [2, 23]\nclass = Non Smoker", fillcolor="#4aa6e7"] ;
732 -> 733 ;
734 [label="entropy = 0.0\nsamples = 6\nvalue = [0, 16]\nclass = Non Smoker", fillcolor="#399de5"] ;
733 -> 734 ;
735 [label="currentSmoker <= 1.5\nentropy = 0.76\nsamples = 6\nvalue = [2, 7]\nclass = Non Smoker", fillcolor="#72b9ec"] ;
733 -> 735 ;
736 [label="TenYearCHD <= 89.0\nentropy = 0.97\nsamples = 4\nvalue = [2, 3]\nclass = Non Smoker", fillcolor="#bddef6"] ;
735 -> 736 ;
737 [label="education <= 64.0\nentropy = 0.92\nsamples = 2\nvalue = [2, 1]\nclass = Smoker", fillcolor="#f2c09c"] ;
736 -> 737 ;
738 [label="entropy = 0.0\nsamples = 1\nvalue = [2, 0]\nclass = Smoker", fillcolor="#e58139"] ;
737 -> 738 ;
739 [label="entropy = 0.0\nsamples = 1\nvalue = [0, 1]\nclass = Non Smoker", fillcolor="#399de5"] ;
737 -> 739 ;
740 [label="entropy = 0.0\nsamples = 2\nvalue = [0, 2]\nclass = Non Smoker", fillcolor="#399de5"] ;
736 -> 740 ;
741 [label="entropy = 0.0\nsamples = 2\nvalue = [0, 4]\nclass = Non Smoker", fillcolor="#399de5"] ;
735 -> 741 ;
742 [label="glucose <= 85.0\nentropy = 1.0\nsamples = 9\nvalue = [8, 7]\nclass = Smoker", fillcolor="#fcefe6"] ;
732 -> 742 ;
743 [label="BPMeds <= 11.5\nentropy = 0.5\nsamples = 6\nvalue = [8, 1]\nclass = Smoker", fillcolor="#e89152"] ;
742 -> 743 ;
744 [label="entropy = 0.0\nsamples = 4\nvalue = [7, 0]\nclass = Smoker", fillcolor="#e58139"] ;
743 -> 744 ;
745 [label="TenYearCHD <= 92.5\nentropy = 1.0\nsamples = 2\nvalue = [1, 1]\nclass = Smoker", fillcolor="#ffffff"] ;
743 -> 745 ;
746 [label="entropy = 0.0\nsamples = 1\nvalue = [1, 0]\nclass = Smoker", fillcolor="#e58139"] ;
745 -> 746 ;
747 [label="entropy = 0.0\nsamples = 1\nvalue = [0, 1]\nclass = Non Smoker", fillcolor="#399de5"] ;
745 -> 747 ;
748 [label="entropy = 0.0\nsamples = 3\nvalue = [0, 6]\nclass = Non Smoker", fillcolor="#399de5"] ;
742 -> 748 ;
749 [label="BPMeds <= 10.96\nentropy = 0.97\nsamples = 108\nvalue = [106, 70]\nclass = Smoker", fillcolor="#f6d4bc"] ;
731 -> 749 ;
750 [label="age <= 0.5\nentropy = 0.9\nsamples = 83\nvalue = [95, 44]\nclass = Smoker", fillcolor="#f1bb95"] ;
749 -> 750 ;
751 [label="heartRate <= 38.27\nentropy = 0.78\nsamples = 62\nvalue = [79, 24]\nclass = Smoker", fillcolor="#eda775"] ;
750 -> 751 ;
752 [label="TenYearCHD <= 74.5\nentropy = 0.7\nsamples = 56\nvalue = [76, 18]\nclass = Smoker", fillcolor="#eb9f68"] ;
751 -> 752 ;
753 [label="entropy = 0.0\nsamples = 9\nvalue = [17, 0]\nclass = Smoker", fillcolor="#e58139"] ;
752 -> 753 ;
754 [label="heartRate <= 30.23\nentropy = 0.78\nsamples = 47\nvalue = [59, 18]\nclass = Smoker", fillcolor="#eda775"] ;
752 -> 754 ;
755 [label="diaBP <= 166.5\nentropy = 0.86\nsamples = 39\nvalue = [46, 18]\nclass = Smoker", fillcolor="#efb286"] ;
754 -> 755 ;
756 [label="entropy = 0.0\nsamples = 14\nvalue = [26, 0]\nclass = Smoker", fillcolor="#e58139"] ;
755 -> 756 ;
757 [label="cigsPerDay <= 0.5\nentropy = 1.0\nsamples = 25\nvalue = [20, 18]\nclass = Smoker", fillcolor="#fcf2eb"] ;
755 -> 757 ;
758 [label="heartRate <= 25.16\nentropy = 0.97\nsamples = 20\nvalue = [12, 18]\nclass = Non Smoker", fillcolor="#bddef6"] ;
757 -> 758 ;
759 [label="entropy = 0.0\nsamples = 3\nvalue = [0, 6]\nclass = Non Smoker", fillcolor="#399de5"] ;
758 -> 759 ;
760 [label="heartRate <= 25.27\nentropy = 1.0\nsamples = 17\nvalue = [12, 12]\nclass = Smoker", fillcolor="#ffffff"] ;
758 -> 760 ;
761 [label="entropy = 0.0\nsamples = 2\nvalue = [2, 0]\nclass = Smoker", fillcolor="#e58139"] ;
760 -> 761 ;
762 [label="diaBP <= 169.5\nentropy = 0.99\nsamples = 15\nvalue = [10, 12]\nclass = Non Smoker", fillcolor="#deeffb"] ;
760 -> 762 ;
763 [label="entropy = 0.0\nsamples = 2\nvalue = [0, 3]\nclass = Non Smoker", fillcolor="#399de5"] ;
762 -> 763 ;
764 [label="heartRate <= 27.02\nentropy = 1.0\nsamples = 13\nvalue = [10, 9]\nclass = Smoker", fillcolor="#fcf2eb"] ;
762 -> 764 ;
765 [label="sysBP <= 233.0\nentropy = 0.65\nsamples = 4\nvalue = [5, 1]\nclass = Smoker", fillcolor="#ea9a61"] ;
764 -> 765 ;
766 [label="entropy = 0.0\nsamples = 1\nvalue = [0, 1]\nclass = Non Smoker", fillcolor="#399de5"] ;
765 -> 766 ;
767 [label="entropy = 0.0\nsamples = 3\nvalue = [5, 0]\nclass = Smoker", fillcolor="#e58139"] ;
765 -> 767 ;
768 [label="sysBP <= 213.0\nentropy = 0.96\nsamples = 9\nvalue = [5, 8]\nclass = Non Smoker", fillcolor="#b5daf5"] ;
764 -> 768 ;
769 [label="entropy = 0.0\nsamples = 2\nvalue = [0, 3]\nclass = Non Smoker", fillcolor="#399de5"] ;
768 -> 769 ;
770 [label="currentSmoker <= 1.5\nentropy = 1.0\nsamples = 7\nvalue = [5, 5]\nclass = Smoker", fillcolor="#ffffff"] ;
768 -> 770 ;
771 [label="sysBP <= 295.0\nentropy = 0.65\nsamples = 4\nvalue = [1, 5]\nclass = Non Smoker", fillcolor="#61b1ea"] ;
770 -> 771 ;
772 [label="entropy = 0.0\nsamples = 2\nvalue = [0, 4]\nclass = Non Smoker", fillcolor="#399de5"] ;
771 -> 772 ;
773 [label="diaBP <= 196.5\nentropy = 1.0\nsamples = 2\nvalue = [1, 1]\nclass = Smoker", fillcolor="#ffffff"] ;
771 -> 773 ;
774 [label="entropy = 0.0\nsamples = 1\nvalue = [0, 1]\nclass = Non Smoker", fillcolor="#399de5"] ;
773 -> 774 ;
775 [label="entropy = 0.0\nsamples = 1\nvalue = [1, 0]\nclass = Smoker", fillcolor="#e58139"] ;
773 -> 775 ;
776 [label="entropy = 0.0\nsamples = 3\nvalue = [4, 0]\nclass = Smoker", fillcolor="#e58139"] ;
770 -> 776 ;
777 [label="entropy = 0.0\nsamples = 5\nvalue = [8, 0]\nclass = Smoker", fillcolor="#e58139"] ;
757 -> 777 ;
778 [label="entropy = 0.0\nsamples = 8\nvalue = [13, 0]\nclass = Smoker", fillcolor="#e58139"] ;
754 -> 778 ;
779 [label="prevalentStroke <= 0.5\nentropy = 0.92\nsamples = 6\nvalue = [3, 6]\nclass = Non Smoker", fillcolor="#9ccef2"] ;
751 -> 779 ;
780 [label="glucose <= 96.0\nentropy = 0.99\nsamples = 4\nvalue = [3, 4]\nclass = Non Smoker", fillcolor="#cee6f8"] ;
779 -> 780 ;
781 [label="sysBP <= 259.5\nentropy = 0.72\nsamples = 3\nvalue = [1, 4]\nclass = Non Smoker", fillcolor="#6ab6ec"] ;
780 -> 781 ;
782 [label="entropy = 0.0\nsamples = 2\nvalue = [0, 4]\nclass = Non Smoker", fillcolor="#399de5"] ;
781 -> 782 ;
783 [label="entropy = 0.0\nsamples = 1\nvalue = [1, 0]\nclass = Smoker", fillcolor="#e58139"] ;
781 -> 783 ;
784 [label="entropy = 0.0\nsamples = 1\nvalue = [2, 0]\nclass = Smoker", fillcolor="#e58139"] ;
780 -> 784 ;
785 [label="entropy = 0.0\nsamples = 2\nvalue = [0, 2]\nclass = Non Smoker", fillcolor="#399de5"] ;
779 -> 785 ;
786 [label="diaBP <= 167.75\nentropy = 0.99\nsamples = 21\nvalue = [16, 20]\nclass = Non Smoker", fillcolor="#d7ebfa"] ;
750 -> 786 ;
787 [label="entropy = 0.0\nsamples = 5\nvalue = [0, 9]\nclass = Non Smoker", fillcolor="#399de5"] ;
786 -> 787 ;
788 [label="education <= 57.5\nentropy = 0.98\nsamples = 16\nvalue = [16, 11]\nclass = Smoker", fillcolor="#f7d8c1"] ;
786 -> 788 ;
789 [label="diaBP <= 176.75\nentropy = 0.99\nsamples = 11\nvalue = [9, 11]\nclass = Non Smoker", fillcolor="#dbedfa"] ;
788 -> 789 ;
790 [label="TenYearCHD <= 74.5\nentropy = 0.47\nsamples = 5\nvalue = [9, 1]\nclass = Smoker", fillcolor="#e88f4f"] ;
789 -> 790 ;
791 [label="glucose <= 78.0\nentropy = 1.0\nsamples = 2\nvalue = [1, 1]\nclass = Smoker", fillcolor="#ffffff"] ;
790 -> 791 ;
792 [label="entropy = 0.0\nsamples = 1\nvalue = [1, 0]\nclass = Smoker", fillcolor="#e58139"] ;
791 -> 792 ;
793 [label="entropy = 0.0\nsamples = 1\nvalue = [0, 1]\nclass = Non Smoker", fillcolor="#399de5"] ;
791 -> 793 ;
794 [label="entropy = 0.0\nsamples = 3\nvalue = [8, 0]\nclass = Smoker", fillcolor="#e58139"] ;
790 -> 794 ;
795 [label="entropy = 0.0\nsamples = 6\nvalue = [0, 10]\nclass = Non Smoker", fillcolor="#399de5"] ;
789 -> 795 ;
796 [label="entropy = 0.0\nsamples = 5\nvalue = [7, 0]\nclass = Smoker", fillcolor="#e58139"] ;
788 -> 796 ;
797 [label="TenYearCHD <= 71.5\nentropy = 0.88\nsamples = 25\nvalue = [11, 26]\nclass = Non Smoker", fillcolor="#8dc6f0"] ;
749 -> 797 ;
798 [label="entropy = 0.0\nsamples = 4\nvalue = [0, 7]\nclass = Non Smoker", fillcolor="#399de5"] ;
797 -> 798 ;
799 [label="BPMeds <= 25.0\nentropy = 0.95\nsamples = 21\nvalue = [11, 19]\nclass = Non Smoker", fillcolor="#acd6f4"] ;
797 -> 799 ;
800 [label="sysBP <= 269.5\nentropy = 1.0\nsamples = 14\nvalue = [11, 10]\nclass = Smoker", fillcolor="#fdf4ed"] ;
799 -> 800 ;
801 [label="sysBP <= 263.0\nentropy = 0.95\nsamples = 10\nvalue = [6, 10]\nclass = Non Smoker", fillcolor="#b0d8f5"] ;
800 -> 801 ;
802 [label="sysBP <= 188.0\nentropy = 0.99\nsamples = 7\nvalue = [6, 5]\nclass = Smoker", fillcolor="#fbeade"] ;
801 -> 802 ;
803 [label="entropy = 0.0\nsamples = 1\nvalue = [2, 0]\nclass = Smoker", fillcolor="#e58139"] ;
802 -> 803 ;
804 [label="glucose <= 65.5\nentropy = 0.99\nsamples = 6\nvalue = [4, 5]\nclass = Non Smoker", fillcolor="#d7ebfa"] ;
802 -> 804 ;
805 [label="entropy = 0.0\nsamples = 2\nvalue = [0, 3]\nclass = Non Smoker", fillcolor="#399de5"] ;
804 -> 805 ;
806 [label="currentSmoker <= 1.51\nentropy = 0.92\nsamples = 4\nvalue = [4, 2]\nclass = Smoker", fillcolor="#f2c09c"] ;
804 -> 806 ;
807 [label="entropy = 0.0\nsamples = 2\nvalue = [2, 0]\nclass = Smoker", fillcolor="#e58139"] ;
806 -> 807 ;
808 [label="education <= 59.5\nentropy = 1.0\nsamples = 2\nvalue = [2, 2]\nclass = Smoker", fillcolor="#ffffff"] ;
806 -> 808 ;
809 [label="entropy = 0.0\nsamples = 1\nvalue = [0, 2]\nclass = Non Smoker", fillcolor="#399de5"] ;
808 -> 809 ;
810 [label="entropy = 0.0\nsamples = 1\nvalue = [2, 0]\nclass = Smoker", fillcolor="#e58139"] ;
808 -> 810 ;
811 [label="entropy = 0.0\nsamples = 3\nvalue = [0, 5]\nclass = Non Smoker", fillcolor="#399de5"] ;
801 -> 811 ;
812 [label="entropy = 0.0\nsamples = 4\nvalue = [5, 0]\nclass = Smoker", fillcolor="#e58139"] ;
800 -> 812 ;
813 [label="entropy = 0.0\nsamples = 7\nvalue = [0, 9]\nclass = Non Smoker", fillcolor="#399de5"] ;
799 -> 813 ;
814 [label="heartRate <= 34.93\nentropy = 0.95\nsamples = 21\nvalue = [10, 17]\nclass = Non Smoker", fillcolor="#add7f4"] ;
484 -> 814 ;
815 [label="glucose <= 105.0\nentropy = 0.9\nsamples = 19\nvalue = [8, 17]\nclass = Non Smoker", fillcolor="#96cbf1"] ;
814 -> 815 ;
816 [label="education <= 60.0\nentropy = 0.95\nsamples = 18\nvalue = [8, 14]\nclass = Non Smoker", fillcolor="#aad5f4"] ;
815 -> 816 ;
